{"learner":{"attributes":{"scikit_learn":"{\"_estimator_type\": \"classifier\"}"},"feature_names":[],"feature_types":[],"gradient_booster":{"model":{"gbtree_model_param":{"num_parallel_tree":"1","num_trees":"106"},"iteration_indptr":[0,1,2,3,4,5,6,7,8,9,10,11,12,13,14,15,16,17,18,19,20,21,22,23,24,25,26,27,28,29,30,31,32,33,34,35,36,37,38,39,40,41,42,43,44,45,46,47,48,49,50,51,52,53,54,55,56,57,58,59,60,61,62,63,64,65,66,67,68,69,70,71,72,73,74,75,76,77,78,79,80,81,82,83,84,85,86,87,88,89,90,91,92,93,94,95,96,97,98,99,100,101,102,103,104,105,106],"tree_info":[0,0,0,0,0,0,0,0,0,0,0,0,0,0,0,0,0,0,0,0,0,0,0,0,0,0,0,0,0,0,0,0,0,0,0,0,0,0,0,0,0,0,0,0,0,0,0,0,0,0,0,0,0,0,0,0,0,0,0,0,0,0,0,0,0,0,0,0,0,0,0,0,0,0,0,0,0,0,0,0,0,0,0,0,0,0,0,0,0,0,0,0,0,0,0,0,0,0,0,0,0,0,0,0,0,0],"trees":[{"base_weights":[-2.2463924E-3,1.8329998E0,-1.749019E0,2.0431308E-1,3.6206722E-1,-1.9628875E0,4.1373137E-1,1.9208427E-1,-1.2356417E0,-2.0424783E-1,1.7090194E-1,1.9899328E-1,-1.8831936E-1,-1.7606606E0,1.1566119E0,-1.9349356E-1,-0E0,1.7090194E-1,-1.9868454E-3],"categories":[],"categories_nodes":[],"categories_segments":[],"categories_sizes":[],"default_left":[0,0,0,0,0,0,0,0,0,0,0,0,0,0,0,0,0,0,0],"id":0,"left_children":[1,3,5,-1,7,9,11,-1,13,-1,-1,-1,-1,15,17,-1,-1,-1,-1],"loss_changes":[9.000097E3,3.079756E2,6.677798E2,0E0,3.204208E2,1.1728516E2,4.4764017E2,0E0,8.341889E1,0E0,0E0,0E0,0E0,1.2267517E1,8.672511E0,0E0,0E0,0E0,0E0],"parents":[2147483647,0,0,1,1,2,2,4,4,5,5,6,6,8,8,13,13,14,14],"right_children":[2,4,6,-1,8,10,12,-1,14,-1,-1,-1,-1,16,18,-1,-1,-1,-1],"split_conditions":[-3.9533157E-2,-2.0544267E-1,6.7341655E-2,2.0431308E-1,-1.0565443E-1,3.4002159E0,-1.5765563E-1,1.9208427E-1,6.7341655E-2,-2.0424783E-1,1.7090194E-1,1.9899328E-1,-1.8831936E-1,5.8428454E-1,1.7819438E-2,-1.9349356E-1,-0E0,1.7090194E-1,-1.9868454E-3],"split_indices":[1,2,15,0,1,23,8,0,15,0,0,0,0,22,7,0,0,0,0],"split_type":[0,0,0,0,0,0,0,0,0,0,0,0,0,0,0,0,0,0,0],"sum_hessian":[2.8054788E3,1.3677982E3,1.4376805E3,1.2369069E3,1.308913E2,1.3087979E3,1.2888269E2,6.759338E1,6.3297913E1,1.3009354E3,7.8624096E0,7.715849E1,5.1724197E1,5.2457E1,1.0840911E1,4.92371E1,3.219902E0,7.8624096E0,2.9785013E0],"tree_param":{"num_deleted":"0","num_feature":"26","num_nodes":"19","size_leaf_vector":"1"}},{"base_weights":[1.6664565E-3,1.6601433E0,-1.578975E0,1.8525115E-1,3.2536423E-1,-1.7396507E0,-2.4611838E-1,1.7286468E-1,-1.0822977E0,-1.7679635E0,1.4843541E-1,1.6149514E0,-1.8112926E-1,1.4704269E-1,-1.416485E0,1.2813757E-1,-1.7790296E0,1.7839493E-1,-4.671655E-2,-1.6552072E0,4.994973E-2,-1.8361528E-1,4.3093856E-2,-6.44597E-2,-1.8038875E-1,1.1981367E-1,-1.1919259E-1],"categories":[],"categories_nodes":[],"categories_segments":[],"categories_sizes":[],"default_left":[0,0,0,0,0,0,0,0,0,0,0,0,0,0,0,0,0,0,0,0,0,0,0,0,0,0,0],"id":1,"left_children":[1,3,5,-1,7,9,11,-1,13,15,-1,17,-1,-1,19,-1,21,-1,-1,23,25,-1,-1,-1,-1,-1,-1],"loss_changes":[7.3275596E3,2.5572656E2,3.0408057E2,0E0,2.562838E2,1.1792285E2,4.4243564E2,0E0,5.705256E1,4.4979248E1,0E0,1.9515503E1,0E0,0E0,2.2176483E1,0E0,2.1729492E1,0E0,0E0,1.8067017E0,1.30173235E1,0E0,0E0,0E0,0E0,0E0,0E0],"parents":[2147483647,0,0,1,1,2,2,4,4,5,5,6,6,8,8,9,9,11,11,14,14,16,16,19,19,20,20],"right_children":[2,4,6,-1,8,10,12,-1,14,16,-1,18,-1,-1,20,-1,22,-1,-1,24,26,-1,-1,-1,-1,-1,-1],"split_conditions":[-3.8483612E-2,-2.0544267E-1,1.2200049E0,1.8525115E-1,-1.0565443E-1,3.4002159E0,5.3998524E-1,1.7286468E-1,-2.8904754E-1,-5.457156E-1,1.4843541E-1,-1.5765563E-1,-1.8112926E-1,1.4704269E-1,1.2200049E0,1.2813757E-1,6.702069E0,1.7839493E-1,-4.671655E-2,-8.246692E-2,-1.654373E-1,-1.8361528E-1,4.3093856E-2,-6.44597E-2,-1.8038875E-1,1.1981367E-1,-1.1919259E-1],"split_indices":[1,2,17,0,1,23,11,0,0,11,0,8,0,0,17,0,5,0,0,2,8,0,0,0,0,0,0],"split_type":[0,0,0,0,0,0,0,0,0,0,0,0,0,0,0,0,0,0,0,0,0,0,0,0,0,0,0],"sum_hessian":[2.7931687E3,1.3632985E3,1.4298702E3,1.231332E3,1.3196642E2,1.27512E3,1.5475026E2,6.7462036E1,6.450439E1,1.2646272E3,1.0492861E1,6.9148056E1,8.5602196E1,6.8424664E0,5.7661922E1,3.8923738E0,1.2607347E3,6.594282E1,3.2052362E0,5.0044342E1,7.6175776E0,1.2573126E3,3.4222064E0,5.9265156E0,4.411783E1,4.3976727E0,3.219905E0],"tree_param":{"num_deleted":"0","num_feature":"26","num_nodes":"27","size_leaf_vector":"1"}},{"base_weights":[-4.4520237E-3,1.5293001E0,-1.4525825E0,1.7105184E-1,2.0804861E-1,-1.6376848E0,3.9092615E-1,1.6097079E-1,-1.0470196E0,-1.7072937E-1,1.484987E-1,1.6984667E-1,-1.5506221E-1,-1.4846538E0,8.7337244E-1,-1.635975E-1,-0E0,1.4975478E-1,-4.6754327E-2],"categories":[],"categories_nodes":[],"categories_segments":[],"categories_sizes":[],"default_left":[0,0,0,0,0,0,0,0,0,0,0,0,0,0,0,0,0,0,0],"id":2,"left_children":[1,3,5,-1,7,9,11,-1,13,-1,-1,-1,-1,15,17,-1,-1,-1,-1],"loss_changes":[6.007954E3,2.3141064E2,4.767422E2,0E0,2.1219316E2,9.265869E1,3.0766638E2,0E0,5.5930313E1,0E0,0E0,0E0,0E0,8.714729E0,1.106009E1,0E0,0E0,0E0,0E0],"parents":[2147483647,0,0,1,1,2,2,4,4,5,5,6,6,8,8,13,13,14,14],"right_children":[2,4,6,-1,8,10,12,-1,14,-1,-1,-1,-1,16,18,-1,-1,-1,-1],"split_conditions":[-3.9533157E-2,-2.0544267E-1,6.7341655E-2,1.7105184E-1,-1.0565443E-1,3.4002159E0,-1.5765563E-1,1.6097079E-1,6.7341655E-2,-1.7072937E-1,1.484987E-1,1.6984667E-1,-1.5506221E-1,5.8428454E-1,-2.8216246E-1,-1.635975E-1,-0E0,1.4975478E-1,-4.6754327E-2],"split_indices":[1,2,15,0,1,23,8,0,15,0,0,0,0,22,8,0,0,0,0],"split_type":[0,0,0,0,0,0,0,0,0,0,0,0,0,0,0,0,0,0,0],"sum_hessian":[2.702986E3,1.3123345E3,1.3906517E3,1.190098E3,1.2223644E2,1.26434E3,1.2631171E2,5.8965107E1,6.3271336E1,1.2557172E3,8.62289E0,7.6290665E1,5.002104E1,5.2125862E1,1.1145471E1,4.867786E1,3.4480047E0,8.181951E0,2.9635205E0],"tree_param":{"num_deleted":"0","num_feature":"26","num_nodes":"19","size_leaf_vector":"1"}},{"base_weights":[-3.7475156E-3,1.432674E0,-1.3652322E0,1.5276293E0,-1.2980764E-1,-1.4974419E0,-2.7547923E-1,1.6070546E-1,1.0283011E0,1.2835855E0,-1.5441489E-1,1.16407216E-1,-1.5089749E0,1.3955669E0,-1.5533075E-1,-6.8808967E-1,1.3513544E0,1.5337263E-1,-2.2156537E-2,-1.5174316E0,4.9696695E-2,1.5475906E-1,-2.0933274E-2,1.0184464E-1,-1.3891418E-1,1.4146433E0,-0E0,-1.3297203E0,-1.6089526E-1,1.5374272E-1,5.542971E-1,-1.4278983E0,8.393467E-1,-0E0,1.2080712E-1,-1.5916839E-1,-1.12696506E-1,-0E0,1.2912114E-1],"categories":[],"categories_nodes":[],"categories_segments":[],"categories_sizes":[],"default_left":[0,0,0,0,0,0,0,0,0,0,0,0,0,0,0,0,0,0,0,0,0,0,0,0,0,0,0,0,0,0,0,0,0,0,0,0,0,0,0],"id":3,"left_children":[1,3,5,7,9,11,13,-1,15,17,-1,-1,19,21,-1,23,25,-1,-1,27,-1,-1,-1,-1,-1,29,-1,31,-1,-1,33,35,37,-1,-1,-1,-1,-1,-1],"loss_changes":[5.089247E3,1.8938013E2,1.9040576E2,1.7110352E1,1.4351372E2,3.8209717E1,3.049541E2,0E0,4.832541E1,1.2835163E1,0E0,0E0,2.173169E1,1.2551933E1,0E0,1.6790169E1,6.539337E0,0E0,0E0,5.6713867E0,0E0,0E0,0E0,0E0,0E0,1.9624634E0,0E0,5.507541E1,0E0,0E0,3.9603012E0,5.3161926E0,3.3593578E0,0E0,0E0,0E0,0E0,0E0,0E0],"parents":[2147483647,0,0,1,1,2,2,3,3,4,4,5,5,6,6,8,8,9,9,12,12,13,13,15,15,16,16,19,19,25,25,27,27,30,30,31,31,32,32],"right_children":[2,4,6,8,10,12,14,-1,16,18,-1,-1,20,22,-1,24,26,-1,-1,28,-1,-1,-1,-1,-1,30,-1,32,-1,-1,34,36,38,-1,-1,-1,-1,-1,-1],"split_conditions":[-3.9533157E-2,5.3998524E-1,1.2200049E0,1.1595838E0,1.1595838E0,-5.457156E-1,5.3998524E-1,1.6070546E-1,-5.5668086E-1,-1.3358264E-1,-1.5441489E-1,1.16407216E-1,6.702069E0,-2.5816616E-1,-1.5533075E-1,-2.9422972E-1,2.7362478E-1,1.5337263E-1,-2.2156537E-2,5.3998524E-1,4.9696695E-2,1.5475906E-1,-2.0933274E-2,1.0184464E-1,-1.3891418E-1,-5.632586E-2,-0E0,1.4174363E-1,-1.6089526E-1,1.5374272E-1,-4.2681787E-2,1.7819438E-2,1.4693663E0,-0E0,1.2080712E-1,-1.5916839E-1,-1.12696506E-1,-0E0,1.2912114E-1],"split_indices":[1,11,17,6,6,11,11,0,7,0,0,0,5,9,0,0,9,0,0,11,0,0,0,0,0,1,0,22,0,0,1,7,22,0,0,0,0,0,0],"split_type":[0,0,0,0,0,0,0,0,0,0,0,0,0,0,0,0,0,0,0,0,0,0,0,0,0,0,0,0,0,0,0,0,0,0,0,0,0,0,0],"sum_hessian":[2.6003171E3,1.2649646E3,1.3353524E3,1.1930992E3,7.186545E1,1.1897452E3,1.4560718E2,1.1098132E3,8.328601E1,3.5087177E1,3.677827E1,4.399051E0,1.1853462E3,6.150537E1,8.410181E1,1.2537246E1,7.0748764E1,3.1376541E1,3.7106361E0,1.18106E3,4.2861156E0,5.817359E1,3.3317802E0,2.9956977E0,9.541548E0,6.773909E1,3.0096707E0,2.4924072E2,9.3181934E2,6.0206966E1,7.532125E0,2.392055E2,1.0035211E1,3.775895E0,3.7562299E0,1.7062607E2,6.8579445E1,3.984793E0,6.050418E0],"tree_param":{"num_deleted":"0","num_feature":"26","num_nodes":"39","size_leaf_vector":"1"}},{"base_weights":[3.9570983E-3,1.3566277E0,-1.2873683E0,1.514932E-1,2.4783713E-1,-1.4524457E0,3.1444338E-1,1.4187899E-1,-8.3264446E-1,-4.9166474E-2,-1.4579704E0,1.5267059E-1,-1.3449522E0,-1.3143828E0,1.0259496E0,-5.5940676E-1,-1.5041053E-1,-4.1408446E-2,-1.4712106E-1,-1.4683264E-1,-0E0,1.3725567E-1,-0E0,-1.1285111E-1,2.1495994E-2],"categories":[],"categories_nodes":[],"categories_segments":[],"categories_sizes":[],"default_left":[0,0,0,0,0,0,0,0,0,0,0,0,0,0,0,0,0,0,0,0,0,0,0,0,0],"id":4,"left_children":[1,3,5,-1,7,9,11,-1,13,-1,15,-1,17,19,21,23,-1,-1,-1,-1,-1,-1,-1,-1,-1],"loss_changes":[4.3194033E3,1.5471313E2,3.3598486E2,0E0,1.452403E2,3.5957031E0,2.3224905E2,0E0,5.5575783E1,0E0,2.4824219E0,0E0,1.6354446E0,8.532814E0,3.6639347E0,4.896552E0,0E0,0E0,0E0,0E0,0E0,0E0,0E0,0E0,0E0],"parents":[2147483647,0,0,1,1,2,2,4,4,5,5,6,6,8,8,10,10,12,12,13,13,14,14,15,15],"right_children":[2,4,6,-1,8,10,12,-1,14,-1,16,-1,18,20,22,24,-1,-1,-1,-1,-1,-1,-1,-1,-1],"split_conditions":[-3.8483612E-2,-2.0544267E-1,6.7341655E-2,1.514932E-1,-1.0565443E-1,-4.2610016E-1,-1.5765563E-1,1.4187899E-1,6.7341655E-2,-4.9166474E-2,-2.8904754E-1,1.5267059E-1,7.2166276E-1,-4.2681787E-2,1.0227568E0,-3.253227E-1,-1.5041053E-1,-4.1408446E-2,-1.4712106E-1,-1.4683264E-1,-0E0,1.3725567E-1,-0E0,-1.1285111E-1,2.1495994E-2],"split_indices":[1,2,15,0,1,9,8,0,15,0,0,0,10,1,18,0,0,0,0,0,0,0,0,0,0],"split_type":[0,0,0,0,0,0,0,0,0,0,0,0,0,0,0,0,0,0,0,0,0,0,0,0,0],"sum_hessian":[2.4707764E3,1.2070659E3,1.2637104E3,1.0907454E3,1.1632045E2,1.1462772E3,1.1743332E2,5.7098515E1,5.9221935E1,7.951162E0,1.138326E3,6.926091E1,4.8172413E1,4.768031E1,1.1541627E1,8.183429E0,1.1301426E3,5.4584894E0,4.271392E1,4.440477E1,3.2755373E0,8.455531E0,3.0860958E0,5.297288E0,2.886141E0],"tree_param":{"num_deleted":"0","num_feature":"26","num_nodes":"25","size_leaf_vector":"1"}},{"base_weights":[-5.9190434E-3,9.353246E-1,-1.325326E0,1.3481088E0,-3.095762E-2,7.4111885E-1,-1.3874625E0,1.3649263E0,3.4536383E-1,-7.8652644E-1,1.3534375E0,-3.1795412E-2,9.759857E-2,-1.3930415E0,-0E0,8.740892E-1,1.4356126E-1,1.0745607E-1,-2.851015E-1,-9.592943E-1,1.4496006E-1,1.4157756E-1,4.036752E-3,-1.4369848E-1,-0E0,1.3714026E-1,-8.323153E-2,-9.154922E-2,2.2134041E-2,-1.0527096E0,1.2299291E-1,1.1298292E-1,-1.1169579E0,-1.3786902E-1,-6.621448E-2],"categories":[],"categories_nodes":[],"categories_segments":[],"categories_sizes":[],"default_left":[0,0,0,0,0,0,0,0,0,0,0,0,0,0,0,0,0,0,0,0,0,0,0,0,0,0,0,0,0,0,0,0,0,0,0],"id":5,"left_children":[1,3,5,7,9,11,13,15,17,19,21,-1,-1,23,-1,25,-1,-1,27,29,-1,-1,-1,-1,-1,-1,-1,-1,-1,31,-1,-1,33,-1,-1],"loss_changes":[2.9436067E3,5.5286316E2,1.2842273E2,1.4219849E1,4.3377115E2,7.2657366E0,7.992676E0,1.1321533E1,9.111284E0,1.0303587E2,3.138153E0,0E0,0E0,5.7615967E0,0E0,4.9689373E1,0E0,0E0,3.7845418E0,5.1567505E1,0E0,0E0,0E0,0E0,0E0,0E0,0E0,0E0,0E0,3.457776E1,0E0,0E0,2.2109192E1,0E0,0E0],"parents":[2147483647,0,0,1,1,2,2,3,3,4,4,5,5,6,6,7,7,8,8,9,9,10,10,13,13,15,15,18,18,19,19,29,29,32,32],"right_children":[2,4,6,8,10,12,14,16,18,20,22,-1,-1,24,-1,26,-1,-1,28,30,-1,-1,-1,-1,-1,-1,-1,-1,-1,32,-1,-1,34,-1,-1],"split_conditions":[5.3998524E-1,-1.6172437E-1,-1.6222878E-1,-7.205717E-2,1.2200049E0,-1.6239691E-1,1.4927415E0,-3.4441587E-1,-1.6222878E-1,3.4002159E0,1.8473817E-1,-3.1795412E-2,9.759857E-2,5.968489E0,-0E0,-4.2610016E-1,1.4356126E-1,1.0745607E-1,-1.6211669E-1,6.064372E0,1.4496006E-1,1.4157756E-1,4.036752E-3,-1.4369848E-1,-0E0,1.3714026E-1,-8.323153E-2,-9.154922E-2,2.2134041E-2,-5.457156E-1,1.2299291E-1,1.1298292E-1,1.7819438E-2,-1.3786902E-1,-6.621448E-2],"split_indices":[11,3,3,8,17,3,21,8,3,23,8,0,0,11,0,9,0,0,3,3,0,0,0,0,0,0,0,0,0,11,0,0,7,0,0],"split_type":[0,0,0,0,0,0,0,0,0,0,0,0,0,0,0,0,0,0,0,0,0,0,0,0,0,0,0,0,0,0,0,0,0,0,0],"sum_hessian":[2.3679492E3,1.381775E3,9.8617426E2,9.686011E2,4.1317392E2,2.8010523E1,9.581637E2,9.513158E2,1.7285254E1,2.680272E2,1.4514673E2,3.785141E0,2.4225382E1,9.54615E2,3.5487025E0,6.1084297E1,8.902315E2,8.602729E0,8.682525E0,2.4942055E2,1.8606646E1,1.4179903E2,3.3477075E0,9.510357E2,3.579291E0,4.859453E1,1.2489766E1,4.446294E0,4.2362313E0,2.399877E2,9.432852E0,6.048667E0,2.3393904E2,1.5605559E2,7.788344E1],"tree_param":{"num_deleted":"0","num_feature":"26","num_nodes":"35","size_leaf_vector":"1"}},{"base_weights":[6.1804284E-3,1.2400444E0,-1.1675833E0,1.3891721E-1,2.3456249E-1,-1.3255844E0,3.533698E-1,9.1163075E-1,-1.3272992E-1,-1.3887084E-1,1.3273327E-1,1.3094022E0,-1.1507664E0,5.7804085E-2,1.3534115E-1,1.41927E-1,1.1155085E-3,-0E0,-1.3373701E-1,1.2771909E-1,-7.806486E-1,-1.27979E-1,6.414505E-2],"categories":[],"categories_nodes":[],"categories_segments":[],"categories_sizes":[],"default_left":[0,0,0,0,0,0,0,0,0,0,0,0,0,0,0,0,0,0,0,0,0,0,0],"id":6,"left_children":[1,3,5,-1,7,9,11,13,-1,-1,-1,15,17,19,-1,-1,-1,-1,-1,-1,21,-1,-1],"loss_changes":[3.1999155E3,1.18700195E2,2.7342285E2,0E0,1.1389066E2,6.970276E1,1.5517519E2,2.5159504E1,0E0,0E0,0E0,4.7522354E0,6.7286797E0,2.7794512E1,0E0,0E0,0E0,0E0,0E0,0E0,1.1617293E1,0E0,0E0],"parents":[2147483647,0,0,1,1,2,2,4,4,5,5,6,6,7,7,11,11,12,12,13,13,20,20],"right_children":[2,4,6,-1,8,10,12,14,-1,-1,-1,16,18,20,-1,-1,-1,-1,-1,-1,22,-1,-1],"split_conditions":[-3.9533157E-2,1.1595838E0,6.7341655E-2,1.3891721E-1,5.3998524E-1,3.4002159E0,-2.3017718E-1,6.7341655E-2,-1.3272992E-1,-1.3887084E-1,1.3273327E-1,1.770498E-1,7.2166276E-1,-1.0565443E-1,1.3534115E-1,1.41927E-1,1.1155085E-3,-0E0,-1.3373701E-1,1.2771909E-1,1.0227568E0,-1.27979E-1,6.414505E-2],"split_indices":[1,6,15,0,11,23,9,15,0,0,0,16,10,1,0,0,0,0,0,0,18,0,0],"split_type":[0,0,0,0,0,0,0,0,0,0,0,0,0,0,0,0,0,0,0,0,0,0,0],"sum_hessian":[2.2074092E3,1.0765273E3,1.130882E3,9.6808563E2,1.08441666E2,1.0251521E3,1.0572986E2,7.5830986E1,3.261068E1,1.0161947E3,8.957385E0,6.511605E1,4.061381E1,2.5533375E1,5.029761E1,6.0965023E1,4.1510286E0,5.07898E0,3.5534832E1,1.0858285E1,1.467509E1,1.1633573E1,3.0415175E0],"tree_param":{"num_deleted":"0","num_feature":"26","num_nodes":"23","size_leaf_vector":"1"}},{"base_weights":[6.051523E-3,1.1933186E0,-1.1275414E0,1.2750787E0,-4.995442E-2,-1.2809044E0,3.2816067E-1,1.2831529E0,6.480108E-2,1.1083813E0,-1.0213969E0,-1.3382594E-1,1.2095842E-1,1.3538884E-1,-1.1855565E0,1.3464637E-1,1.0308667E0,7.861562E-2,-6.9179945E-2,1.2707594E-1,-0E0,5.6965243E-2,-1.2600006E-1,-1.0985931E-2,-1.3002762E-1,1.5404846E-1,1.3242495E-1,-1.2231552E-1,1.14257805E-1],"categories":[],"categories_nodes":[],"categories_segments":[],"categories_sizes":[],"default_left":[0,0,0,0,0,0,0,0,0,0,0,0,0,0,0,0,0,0,0,0,0,0,0,0,0,0,0,0,0],"id":7,"left_children":[1,3,5,7,9,11,13,15,17,19,21,-1,-1,-1,23,-1,25,-1,-1,-1,-1,-1,-1,-1,-1,27,-1,-1,-1],"loss_changes":[2.8088772E3,1.0490906E2,2.3960168E2,7.9699707E0,7.214302E1,5.1266724E1,1.5426677E2,2.7510986E0,4.8475256E0,4.1437187E0,1.2709572E1,0E0,0E0,0E0,1.9932289E0,0E0,2.072181E1,0E0,0E0,0E0,0E0,0E0,0E0,0E0,0E0,3.2715733E1,0E0,0E0,0E0],"parents":[2147483647,0,0,1,1,2,2,3,3,4,4,5,5,6,6,7,7,8,8,9,9,10,10,14,14,16,16,25,25],"right_children":[2,4,6,8,10,12,14,16,18,20,22,-1,-1,-1,24,-1,26,-1,-1,-1,-1,-1,-1,-1,-1,28,-1,-1,-1],"split_conditions":[-3.8483612E-2,5.3998524E-1,6.7341655E-2,3.8558075E-1,-1.6172437E-1,3.4002159E0,-1.5765563E-1,-7.416811E-2,-7.521766E-2,-2.4759024E-1,-2.838654E-1,-1.3382594E-1,1.2095842E-1,1.3538884E-1,1.8473817E-1,1.3464637E-1,6.7341655E-2,7.861562E-2,-6.9179945E-2,1.2707594E-1,-0E0,5.6965243E-2,-1.2600006E-1,-1.0985931E-2,-1.3002762E-1,5.923197E-1,1.3242495E-1,-1.2231552E-1,1.14257805E-1],"split_indices":[1,11,15,9,3,23,8,1,1,0,0,0,0,0,8,0,15,0,0,0,0,0,0,0,0,7,0,0,0],"split_type":[0,0,0,0,0,0,0,0,0,0,0,0,0,0,0,0,0,0,0,0,0,0,0,0,0,0,0,0,0],"sum_hessian":[2.0849507E3,1.01875684E3,1.0661937E3,9.5660095E2,6.2155922E1,9.6528394E2,1.0090981E2,9.494069E2,7.1939826E0,2.7831572E1,3.4324352E1,9.5801227E2,7.2716646E0,6.1503414E1,3.94064E1,8.51494E2,9.7912895E1,4.345329E0,2.8486536E0,2.4889683E1,2.941889E0,3.1969268E0,3.1127424E1,3.6960814E0,3.5710316E1,2.3433397E1,7.44795E1,9.226425E0,1.4206972E1],"tree_param":{"num_deleted":"0","num_feature":"26","num_nodes":"29","size_leaf_vector":"1"}},{"base_weights":[2.556272E-3,1.1594025E0,-1.0893117E0,1.3010557E-1,1.8548822E-1,-1.2382652E0,2.6416656E-1,1.15884654E-1,-7.227765E-1,-1.2953942E-1,1.1636436E-1,1.2727956E-1,-7.372778E-1,-1.1310685E0,6.7705667E-1,-0E0,-1.2582523E-1,-1.2606424E-1,-0E0,-0E0,1.088843E-1,1.1681643E-1,-1.1013751E-1],"categories":[],"categories_nodes":[],"categories_segments":[],"categories_sizes":[],"default_left":[0,0,0,0,0,0,0,0,0,0,0,0,0,0,0,0,0,0,0,0,0,0,0],"id":8,"left_children":[1,3,5,-1,7,9,11,-1,13,-1,-1,-1,15,17,19,21,-1,-1,-1,-1,-1,-1,-1],"loss_changes":[2.4564146E3,9.606213E1,2.0287817E2,0E0,8.244468E1,4.82157E1,9.829234E1,0E0,2.8897148E1,0E0,0E0,0E0,1.7280909E1,3.8952904E0,3.840643E0,2.6505005E1,0E0,0E0,0E0,0E0,0E0,0E0,0E0],"parents":[2147483647,0,0,1,1,2,2,4,4,5,5,6,6,8,8,12,12,13,13,14,14,15,15],"right_children":[2,4,6,-1,8,10,12,-1,14,-1,-1,-1,16,18,20,22,-1,-1,-1,-1,-1,-1,-1],"split_conditions":[-3.9533157E-2,-2.0544267E-1,6.7341655E-2,1.3010557E-1,-1.0565443E-1,3.4002159E0,1.0227568E0,1.15884654E-1,6.7341655E-2,-1.2953942E-1,1.1636436E-1,1.2727956E-1,5.3998524E-1,1.4174363E-1,1.2200049E0,1.770498E-1,-1.2582523E-1,-1.2606424E-1,-0E0,-0E0,1.088843E-1,1.1681643E-1,-1.1013751E-1],"split_indices":[1,2,15,0,1,23,18,0,15,0,0,0,11,22,17,16,0,0,0,0,0,0,0],"split_type":[0,0,0,0,0,0,0,0,0,0,0,0,0,0,0,0,0,0,0,0,0,0,0],"sum_hessian":[1.9426361E3,9.4365076E2,9.989853E2,8.497019E2,9.394889E1,9.006657E2,9.831961E1,4.6526436E1,4.7422455E1,8.9332153E2,7.344179E0,5.0212505E1,4.8107105E1,3.739942E1,1.0023029E1,1.9761309E1,2.8345795E1,3.4256107E1,3.1433163E0,3.1027358E0,6.920294E0,9.432663E0,1.0328646E1],"tree_param":{"num_deleted":"0","num_feature":"26","num_nodes":"23","size_leaf_vector":"1"}},{"base_weights":[6.154508E-3,1.1248137E0,-1.065825E0,1.263694E-1,1.7964898E-1,-1.1727887E0,-1.6709337E-1,8.098035E-1,-1.24631695E-1,-1.1972036E0,1.08041555E-1,1.0997311E0,-1.20543025E-1,1.23210065E-1,-8.53867E-3,-1.2386146E-1,4.2079635E-2,1.233613E-1,-0E0,-6.345426E-1,8.819031E-2,9.891323E-3,-1.02873474E-1],"categories":[],"categories_nodes":[],"categories_segments":[],"categories_sizes":[],"default_left":[0,0,0,0,0,0,0,0,0,0,0,0,0,0,0,0,0,0,0,0,0,0,0],"id":9,"left_children":[1,3,5,-1,7,9,11,13,-1,15,-1,17,-1,-1,19,-1,-1,-1,-1,21,-1,-1,-1],"loss_changes":[2.1547048E3,8.525134E1,8.666699E1,0E0,7.923542E1,4.5849854E1,1.2834888E2,2.11357E1,0E0,1.1237183E1,0E0,5.9609795E0,0E0,0E0,1.14135E1,0E0,0E0,0E0,0E0,4.4742737E0,0E0,0E0,0E0],"parents":[2147483647,0,0,1,1,2,2,4,4,5,5,6,6,7,7,9,9,11,11,14,14,19,19],"right_children":[2,4,6,-1,8,10,12,14,-1,16,-1,18,-1,-1,20,-1,-1,-1,-1,22,-1,-1,-1],"split_conditions":[-3.9533157E-2,-2.0544267E-1,1.2200049E0,1.263694E-1,5.3998524E-1,3.4002159E0,5.3998524E-1,-1.0565443E-1,-1.24631695E-1,6.702069E0,1.08041555E-1,-2.5816616E-1,-1.20543025E-1,1.23210065E-1,1.2200049E0,-1.2386146E-1,4.2079635E-2,1.233613E-1,-0E0,-2.6313674E-1,8.819031E-2,9.891323E-3,-1.02873474E-1],"split_indices":[1,2,17,0,11,23,11,1,0,5,0,9,0,0,17,0,0,0,0,0,0,0,0],"split_type":[0,0,0,0,0,0,0,0,0,0,0,0,0,0,0,0,0,0,0,0,0,0,0],"sum_hessian":[1.7947432E3,8.786668E2,9.160763E2,7.9003876E2,8.862807E1,8.174067E2,9.86696E1,6.1779156E1,2.6848911E1,8.0942236E2,7.984364E0,4.3193188E1,5.5476418E1,4.236624E1,1.9412916E1,8.0643427E2,2.988063E0,4.0254333E1,2.9388533E0,1.2075392E1,7.3375244E0,3.3983083E0,8.677084E0],"tree_param":{"num_deleted":"0","num_feature":"26","num_nodes":"23","size_leaf_vector":"1"}},{"base_weights":[9.653117E-3,-8.743425E-1,1.1092719E0,9.8033345E-1,-1.0594231E0,1.2001221E0,-7.511618E-1,-8.689445E-2,1.0899698E0,9.373862E-1,-1.1128409E0,1.2447173E-1,-4.327379E-2,-1.0168014E0,9.432261E-2,1.1948323E-1,1.9432203E-1,1.1342761E-1,1.1945901E-2,-7.870114E-1,-1.2363743E-1,-0E0,-1.2063154E-1,-1.6303008E-2,7.533479E-2,-1.185873E0,2.7073303E-1,-1.23955265E-1,-4.415616E-3,8.563589E-1,-8.884574E-2,1.06699444E-1,-1.349368E-2],"categories":[],"categories_nodes":[],"categories_segments":[],"categories_sizes":[],"default_left":[0,0,0,0,0,0,0,0,0,0,0,0,0,0,0,0,0,0,0,0,0,0,0,0,0,0,0,0,0,0,0,0,0],"id":10,"left_children":[1,3,5,7,9,11,13,-1,15,17,19,-1,-1,21,-1,-1,23,-1,-1,25,-1,-1,-1,-1,-1,27,29,-1,-1,31,-1,-1,-1],"loss_changes":[1.6139026E3,3.168542E2,1.2647101E2,1.7884079E1,9.0534546E1,1.3508423E1,1.6375278E1,0E0,3.621605E0,1.6746082E0,2.1015198E1,0E0,0E0,5.7640305E0,0E0,0E0,2.2256367E0,0E0,0E0,7.787111E1,0E0,0E0,0E0,0E0,0E0,1.7602081E0,3.39203E1,0E0,0E0,7.111017E0,0E0,0E0,0E0],"parents":[2147483647,0,0,1,1,2,2,3,3,4,4,5,5,6,6,8,8,9,9,10,10,13,13,16,16,19,19,25,25,26,26,29,29],"right_children":[2,4,6,8,10,12,14,-1,16,18,20,-1,-1,22,-1,-1,24,-1,-1,26,-1,-1,-1,-1,-1,28,30,-1,-1,32,-1,-1,-1],"split_conditions":[6.7341655E-2,-1.6222878E-1,3.1702667E-1,-3.3050486E-1,-2.8904754E-1,2.5719573E0,7.217221E-1,-8.689445E-2,-2.4759024E-1,-1.96564E-1,5.3998524E-1,1.2447173E-1,-4.327379E-2,-2.5795457E-1,9.432261E-2,1.1948323E-1,1.4174363E-1,1.1342761E-1,1.1945901E-2,5.923197E-1,-1.2363743E-1,-0E0,-1.2063154E-1,-1.6303008E-2,7.533479E-2,1.2200049E0,-9.0232186E-2,-1.23955265E-1,-4.415616E-3,-1.5847379E-1,-8.884574E-2,1.06699444E-1,-1.349368E-2],"split_indices":[15,3,8,0,0,18,12,0,0,8,11,0,0,0,0,0,22,0,0,7,0,0,0,0,0,17,9,0,0,3,0,0,0],"split_type":[0,0,0,0,0,0,0,0,0,0,0,0,0,0,0,0,0,0,0,0,0,0,0,0,0,0,0,0,0,0,0,0,0],"sum_hessian":[1.6580375E3,9.1876227E2,7.392752E2,8.249643E1,8.3626587E2,7.056935E2,3.358174E1,3.7889721E0,7.870746E1,2.0880232E1,8.153856E2,7.0192444E2,3.7689996E0,2.9811234E1,3.770508E0,7.155029E1,7.1571627E0,1.6100292E1,4.7799397E0,1.806942E2,6.346914E2,3.4938903E0,2.6317343E1,3.6701932E0,3.4869697E0,1.3178972E2,4.8904476E1,1.2864792E2,3.1417947E0,3.2985397E1,1.5919079E1,2.8646852E1,4.338544E0],"tree_param":{"num_deleted":"0","num_feature":"26","num_nodes":"33","size_leaf_vector":"1"}},{"base_weights":[-2.1292234E-4,1.0603157E0,-9.992077E-1,1.20546795E-1,1.145005E-1,-1.1439383E0,3.1909367E-1,7.159424E-1,-1.1526538E-1,-1.1999033E-1,1.042585E-1,1.21868536E-1,-1.0224854E0,-3.4478933E-1,9.287027E-1,-1.1578752E-1,-0E0,1.6312359E-3,-7.293021E-2,1.083391E-1,1.13559954E-1,-3.252091E-2,7.786775E-2],"categories":[],"categories_nodes":[],"categories_segments":[],"categories_sizes":[],"default_left":[0,0,0,0,0,0,0,0,0,0,0,0,0,0,0,0,0,0,0,0,0,0,0],"id":11,"left_children":[1,3,5,-1,7,9,11,13,-1,-1,-1,-1,15,17,19,-1,-1,-1,-1,-1,21,-1,-1],"loss_changes":[1.6297784E3,7.7827515E1,1.5240051E2,0E0,6.0758007E1,3.7250854E1,9.267568E1,1.3470774E1,0E0,0E0,0E0,0E0,2.6671982E0,1.9043115E0,3.5928802E0,0E0,0E0,0E0,0E0,0E0,3.0172446E0,0E0,0E0],"parents":[2147483647,0,0,1,1,2,2,4,4,5,5,6,6,7,7,12,12,13,13,14,14,20,20],"right_children":[2,4,6,-1,8,10,12,14,-1,-1,-1,-1,16,18,20,-1,-1,-1,-1,-1,22,-1,-1],"split_conditions":[-3.9533157E-2,1.1595838E0,6.7341655E-2,1.20546795E-1,5.3998524E-1,3.4002159E0,-1.5765563E-1,-5.5668086E-1,-1.1526538E-1,-1.1999033E-1,1.042585E-1,1.21868536E-1,8.3561414E-1,-8.246692E-2,-5.632586E-2,-1.1578752E-1,-0E0,1.6312359E-3,-7.293021E-2,1.083391E-1,-4.2681787E-2,-3.252091E-2,7.786775E-2],"split_indices":[1,6,15,0,11,23,8,7,0,0,0,0,15,2,1,0,0,0,0,0,1,0,0],"split_type":[0,0,0,0,0,0,0,0,0,0,0,0,0,0,0,0,0,0,0,0,0,0,0],"sum_hessian":[1.5363374E3,7.4471783E2,7.916196E2,6.645477E2,8.017006E1,7.140903E2,7.7529335E1,5.4737595E1,2.5432465E1,7.073776E2,6.7126355E0,4.7617264E1,2.991207E1,8.280484E0,4.645711E1,2.6575495E1,3.3365755E0,3.3164086E0,4.9640756E0,3.898759E1,7.4695215E0,3.8872218E0,3.5822995E0],"tree_param":{"num_deleted":"0","num_feature":"26","num_nodes":"23","size_leaf_vector":"1"}},{"base_weights":[-0E0,1.0417424E0,-9.765291E-1,1.1368619E0,-0E0,-1.1198035E0,2.4430893E-1,1.1829227E-1,5.229278E-1,1.05348624E-1,-9.244529E-1,-1.1745193E-1,9.936928E-2,1.0365268E0,-9.39108E-1,8.717505E-2,-5.1418368E-2,-1.1152409E-1,-0E0,1.1695528E-1,-0E0,-0E0,-1.1095481E-1],"categories":[],"categories_nodes":[],"categories_segments":[],"categories_sizes":[],"default_left":[0,0,0,0,0,0,0,0,0,0,0,0,0,0,0,0,0,0,0,0,0,0,0],"id":12,"left_children":[1,3,5,7,9,11,13,-1,15,-1,17,-1,-1,19,21,-1,-1,-1,-1,-1,-1,-1,-1],"loss_changes":[1.4513665E3,6.826367E1,1.3000153E2,3.1369019E0,5.669039E1,3.2572205E1,7.374698E1,0E0,6.525077E0,0E0,5.1785946E0,0E0,0E0,5.632057E0,4.017496E0,0E0,0E0,0E0,0E0,0E0,0E0,0E0,0E0],"parents":[2147483647,0,0,1,1,2,2,3,3,4,4,5,5,6,6,8,8,10,10,13,13,14,14],"right_children":[2,4,6,8,10,12,14,-1,16,-1,18,-1,-1,20,22,-1,-1,-1,-1,-1,-1,-1,-1],"split_conditions":[-3.9533157E-2,-8.246692E-2,6.7341655E-2,-2.0544267E-1,-1.0565443E-1,3.4002159E0,-1.7419918E-1,1.1829227E-1,5.3998524E-1,1.05348624E-1,6.7341655E-2,-1.1745193E-1,9.936928E-2,1.770498E-1,7.2166276E-1,8.717505E-2,-5.1418368E-2,-1.1152409E-1,-0E0,1.1695528E-1,-0E0,-0E0,-1.1095481E-1],"split_indices":[1,2,15,2,1,23,9,0,11,0,15,0,0,16,10,0,0,0,0,0,0,0,0],"split_type":[0,0,0,0,0,0,0,0,0,0,0,0,0,0,0,0,0,0,0,0,0,0,0],"sum_hessian":[1.4247202E3,6.8892957E2,7.3579065E2,6.311238E2,5.7805782E1,6.5929364E2,7.649697E1,6.148194E2,1.6304405E1,2.7409508E1,3.0396275E1,6.531072E2,6.186499E0,4.6386974E1,3.011E1,1.3222048E1,3.082358E0,2.6195448E1,4.2008276E0,4.268429E1,3.7026803E0,4.1117373E0,2.5998262E1],"tree_param":{"num_deleted":"0","num_feature":"26","num_nodes":"23","size_leaf_vector":"1"}},{"base_weights":[5.970239E-3,-8.153342E-1,1.0429391E0,-1.0216265E0,1.16872996E-1,1.1691209E-1,-5.812718E-1,4.318558E-1,-1.0744362E0,-8.976257E-1,9.507009E-2,-0E0,7.864776E-2,-1.0852431E0,-6.6273436E-2,-0E0,-1.0407012E-1,-0E0,-1.12465255E-1,7.744324E-2,-8.0797404E-2],"categories":[],"categories_nodes":[],"categories_segments":[],"categories_sizes":[],"default_left":[0,0,0,0,0,0,0,0,0,0,0,0,0,0,0,0,0,0,0,0,0],"id":13,"left_children":[1,3,5,7,-1,-1,9,11,13,15,-1,-1,-1,17,19,-1,-1,-1,-1,-1,-1],"loss_changes":[1.1189856E3,2.9606992E2,9.022986E1,5.2019714E1,0E0,0E0,1.6061024E1,3.7800431E0,5.798889E0,2.2531872E0,0E0,0E0,0E0,5.015808E0,5.8380637E0,0E0,0E0,0E0,0E0,0E0,0E0],"parents":[2147483647,0,0,1,1,2,2,3,3,6,6,7,7,8,8,9,9,13,13,14,14],"right_children":[2,4,6,8,-1,-1,10,12,14,16,-1,-1,-1,18,20,-1,-1,-1,-1,-1,-1],"split_conditions":[6.7341655E-2,3.4002159E0,2.0030153E-1,-1.6222878E-1,1.16872996E-1,1.1691209E-1,8.387323E-1,5.923197E-1,6.991618E-1,-1.6172437E-1,9.507009E-2,-0E0,7.864776E-2,-4.2610016E-1,4.7266024E-1,-0E0,-1.0407012E-1,-0E0,-1.12465255E-1,7.744324E-2,-8.0797404E-2],"split_indices":[15,23,8,3,0,0,12,7,24,3,0,0,0,9,8,0,0,0,0,0,0],"split_type":[0,0,0,0,0,0,0,0,0,0,0,0,0,0,0,0,0,0,0,0,0],"sum_hessian":[1.3115946E3,7.31507E2,5.800875E2,6.624802E2,6.902681E1,5.4909937E2,3.0988134E1,2.232927E1,6.4015094E2,2.6477673E1,4.5104628E0,9.445769E0,1.2883499E1,6.3233594E2,7.8149924E0,3.6785913E0,2.2799082E1,5.9118924E0,6.264241E2,3.003393E0,4.8115997E0],"tree_param":{"num_deleted":"0","num_feature":"26","num_nodes":"21","size_leaf_vector":"1"}},{"base_weights":[-0E0,1.0040114E0,-9.419399E-1,1.1446624E-1,1.2979433E-1,-1.0853659E0,2.4427576E-1,6.89192E-1,-1.07850485E-1,-1.13828406E-1,8.995744E-2,9.9197185E-1,-8.9485884E-1,1.10070035E-1,-1.14212E-2,1.11920744E-1,-0E0,-0E0,-1.0558529E-1,-6.217605E-1,7.554445E-2,-1.0189954E-1,1.8329048E-3],"categories":[],"categories_nodes":[],"categories_segments":[],"categories_sizes":[],"default_left":[0,0,0,0,0,0,0,0,0,0,0,0,0,0,0,0,0,0,0,0,0,0,0],"id":14,"left_children":[1,3,5,-1,7,9,11,13,-1,-1,-1,15,17,-1,19,-1,-1,-1,-1,21,-1,-1,-1],"loss_changes":[1.1415305E3,5.459503E1,1.0696637E2,0E0,4.469078E1,2.5079834E1,5.825593E1,1.3527893E1,0E0,0E0,0E0,4.5004234E0,2.417015E0,0E0,7.906896E0,0E0,0E0,0E0,0E0,3.4131818E0,0E0,0E0,0E0],"parents":[2147483647,0,0,1,1,2,2,4,4,5,5,6,6,7,7,11,11,12,12,14,14,19,19],"right_children":[2,4,6,-1,8,10,12,14,-1,-1,-1,16,18,-1,20,-1,-1,-1,-1,22,-1,-1,-1],"split_conditions":[-3.9533157E-2,-2.0544267E-1,6.7341655E-2,1.1446624E-1,5.3998524E-1,3.4002159E0,-1.7419918E-1,-1.0565443E-1,-1.07850485E-1,-1.13828406E-1,8.995744E-2,1.770498E-1,7.2166276E-1,1.10070035E-1,6.7341655E-2,1.11920744E-1,-0E0,-0E0,-1.0558529E-1,5.923197E-1,7.554445E-2,-1.0189954E-1,1.8329048E-3],"split_indices":[1,2,15,0,11,23,9,1,0,0,0,16,10,0,15,0,0,0,0,7,0,0,0],"split_type":[0,0,0,0,0,0,0,0,0,0,0,0,0,0,0,0,0,0,0,0,0,0,0],"sum_hessian":[1.2049758E3,5.8362994E2,6.213459E2,5.17458E2,6.6171936E1,5.5512665E2,6.621926E1,4.5719044E1,2.0452896E1,5.4991815E2,5.208448E0,4.057006E1,2.5649202E1,3.0147879E1,1.5571164E1,3.730578E1,3.2642832E0,4.1314554E0,2.1517746E1,9.371597E0,6.199567E0,6.5458074E0,2.8257897E0],"tree_param":{"num_deleted":"0","num_feature":"26","num_nodes":"23","size_leaf_vector":"1"}},{"base_weights":[8.469117E-3,9.926297E-1,-9.1323316E-1,1.128117E-1,1.5581131E-1,-1.0210549E0,-7.9594396E-2,1.00512624E-1,-5.566022E-1,-1.047284E0,8.314978E-2,1.0060773E0,-1.0528809E-1,8.5563205E-2,-8.291761E-1,-1.9676891E-1,-1.0575162E0,1.1272947E-1,-0E0,-1.0182425E-1,-0E0,4.3862816E-2,-7.925293E-2,-3.0646688E-1,-1.0967259E-1,-8.152391E-2,-0E0],"categories":[],"categories_nodes":[],"categories_segments":[],"categories_sizes":[],"default_left":[0,0,0,0,0,0,0,0,0,0,0,0,0,0,0,0,0,0,0,0,0,0,0,0,0,0,0],"id":15,"left_children":[1,3,5,-1,7,9,11,-1,13,15,-1,17,-1,-1,19,21,23,-1,-1,-1,-1,-1,-1,25,-1,-1,-1],"loss_changes":[1.0043323E3,4.558844E1,5.0194183E1,0E0,3.7159847E1,2.5310303E1,7.032597E1,0E0,1.3239606E1,2.9143677E0,0E0,2.5889416E0,0E0,0E0,4.753664E0,3.634787E0,1.7796631E0,0E0,0E0,0E0,0E0,0E0,0E0,1.9813666E0,0E0,0E0,0E0],"parents":[2147483647,0,0,1,1,2,2,4,4,5,5,6,6,8,8,9,9,11,11,14,14,15,15,16,16,23,23],"right_children":[2,4,6,-1,8,10,12,-1,14,16,-1,18,-1,-1,20,22,24,-1,-1,-1,-1,-1,-1,26,-1,-1,-1],"split_conditions":[-3.9533157E-2,-2.0544267E-1,1.2200049E0,1.128117E-1,-1.0565443E-1,3.4002159E0,5.3998524E-1,1.00512624E-1,-2.8904754E-1,-3.3136952E-1,8.314978E-2,-1.654373E-1,-1.0528809E-1,8.5563205E-2,1.2200049E0,2.7362478E-1,-2.838654E-1,1.1272947E-1,-0E0,-1.0182425E-1,-0E0,4.3862816E-2,-7.925293E-2,-3.2014054E-1,-1.0967259E-1,-8.152391E-2,-0E0],"split_indices":[1,2,17,0,1,23,11,0,0,12,0,8,0,0,17,9,0,0,0,0,0,0,0,0,0,0,0],"split_type":[0,0,0,0,0,0,0,0,0,0,0,0,0,0,0,0,0,0,0,0,0,0,0,0,0,0,0],"sum_hessian":[1.1050774E3,5.349009E2,5.701765E2,4.7408862E2,6.0812237E1,5.0364758E2,6.652893E1,2.86912E1,3.2121037E1,4.9747852E2,6.1690936E0,3.0445957E1,3.6082977E1,4.3463397E0,2.7774698E1,7.2809906E0,4.901975E2,2.7620893E1,2.8250637E0,2.4006727E1,3.7679703E0,2.80781E0,4.4731803E0,7.7020264E0,4.8249548E2,3.439514E0,4.262512E0],"tree_param":{"num_deleted":"0","num_feature":"26","num_nodes":"27","size_leaf_vector":"1"}},{"base_weights":[1.1410838E-2,9.7557646E-1,-9.100922E-1,1.1110247E-1,1.6473706E-1,-1.0544703E0,2.560585E-1,6.4397264E-1,-9.493581E-2,-1.0980383E-2,-1.091055E-1,9.798672E-1,-8.141177E-1,1.0475219E-1,-0E0,1.0898193E-1,-0E0,-0E0,-1.00411214E-1,-2.9898977E-1,8.3077356E-2,1.2503E-2,-9.3369454E-2],"categories":[],"categories_nodes":[],"categories_segments":[],"categories_sizes":[],"default_left":[0,0,0,0,0,0,0,0,0,0,0,0,0,0,0,0,0,0,0,0,0,0,0],"id":16,"left_children":[1,3,5,-1,7,9,11,13,-1,-1,-1,15,17,-1,19,-1,-1,-1,-1,21,-1,-1,-1],"loss_changes":[9.0500006E2,4.11037E1,8.86427E1,0E0,3.1339075E1,1.767273E0,4.5425972E1,9.80913E0,0E0,0E0,0E0,2.2959404E0,2.9011106E0,0E0,4.5989428E0,0E0,0E0,0E0,0E0,4.1553473E0,0E0,0E0,0E0],"parents":[2147483647,0,0,1,1,2,2,4,4,5,5,6,6,7,7,11,11,12,12,14,14,19,19],"right_children":[2,4,6,-1,8,10,12,14,-1,-1,-1,16,18,-1,20,-1,-1,-1,-1,22,-1,-1,-1],"split_conditions":[-3.9533157E-2,-2.0544267E-1,6.7341655E-2,1.1110247E-1,5.3998524E-1,-1.6228482E-1,-2.3017718E-1,-1.0565443E-1,-9.493581E-2,-1.0980383E-2,-1.091055E-1,1.770498E-1,7.2166276E-1,1.0475219E-1,-4.583042E-2,1.0898193E-1,-0E0,-0E0,-1.00411214E-1,-2.1435933E-1,8.3077356E-2,1.2503E-2,-9.3369454E-2],"split_indices":[1,2,15,0,11,3,9,1,0,0,0,16,10,0,1,0,0,0,0,12,0,0,0],"split_type":[0,0,0,0,0,0,0,0,0,0,0,0,0,0,0,0,0,0,0,0,0,0,0],"sum_hessian":[1.01649615E3,4.97233E2,5.192632E2,4.3878958E2,5.8443424E1,4.6288135E2,5.6381824E1,4.1478924E1,1.6964499E1,4.45624E0,4.584251E2,3.4223866E1,2.2157957E1,2.5405724E1,1.60732E1,3.113383E1,3.090037E0,4.0326433E0,1.8125315E1,1.1797306E1,4.275893E0,6.519485E0,5.2778215E0],"tree_param":{"num_deleted":"0","num_feature":"26","num_nodes":"23","size_leaf_vector":"1"}},{"base_weights":[-0E0,9.579847E-1,-8.8986516E-1,1.0996494E-1,1.07899696E-1,-1.0313299E0,2.330365E-1,-5.049166E-1,8.9803755E-1,-1.0896233E-1,8.942513E-2,8.779035E-1,-8.890336E-2,6.49947E-2,-9.023892E-1,1.0398927E-1,-0E0,1.0703026E-1,-8.276826E-3,-1.0471791E-1,-0E0],"categories":[],"categories_nodes":[],"categories_segments":[],"categories_sizes":[],"default_left":[0,0,0,0,0,0,0,0,0,0,0,0,0,0,0,0,0,0,0,0,0],"id":17,"left_children":[1,3,5,-1,7,9,11,13,15,-1,-1,17,-1,-1,19,-1,-1,-1,-1,-1,-1],"loss_changes":[7.97056E2,4.149698E1,7.8015625E1,0E0,2.7191256E1,2.4576477E1,3.9220757E1,1.4673994E1,1.8295803E0,0E0,0E0,6.530426E0,0E0,0E0,2.3989182E0,0E0,0E0,0E0,0E0,0E0,0E0],"parents":[2147483647,0,0,1,1,2,2,4,4,5,5,6,6,7,7,8,8,11,11,14,14],"right_children":[2,4,6,-1,8,10,12,14,16,-1,-1,18,-1,-1,20,-1,-1,-1,-1,-1,-1],"split_conditions":[-3.8483612E-2,1.1595838E0,6.7341655E-2,1.0996494E-1,6.7341655E-2,3.4002159E0,-3.4254193E-2,-1.0565443E-1,-1.5909028E-1,-1.0896233E-1,8.942513E-2,1.770498E-1,-8.890336E-2,6.49947E-2,1.4174363E-1,1.0398927E-1,-0E0,1.0703026E-1,-8.276826E-3,-1.0471791E-1,-0E0],"split_indices":[1,6,15,0,15,23,9,1,3,0,0,16,0,0,22,0,0,0,0,0,0],"split_type":[0,0,0,0,0,0,0,0,0,0,0,0,0,0,0,0,0,0,0,0,0],"sum_hessian":[9.3296356E2,4.4924368E2,4.8371988E2,3.9583377E2,5.3409935E1,4.3043677E2,5.328312E1,2.9596733E1,2.3813202E1,4.2500046E2,5.436284E0,3.424916E1,1.9033957E1,6.8805175E0,2.2716215E1,2.0341991E1,3.4712117E0,3.0052546E1,4.1966147E0,1.9921104E1,2.7951112E0],"tree_param":{"num_deleted":"0","num_feature":"26","num_nodes":"21","size_leaf_vector":"1"}},{"base_weights":[3.8068912E-3,9.334169E-1,-8.72791E-1,1.053924E0,7.552298E-2,-1.0126805E0,2.0128123E-1,1.102063E-1,4.8462394E-1,8.443402E-2,-5.430078E-1,-1.040909E0,8.523648E-2,1.0377431E-1,-7.7323246E-1,9.4091006E-2,-4.5196168E-2,1.3760415E-1,-1.00685954E-1,-0E0,-1.07857645E-1,-1.9839384E-4,-9.3981154E-2,-1.9810323E-2,7.8277886E-2],"categories":[],"categories_nodes":[],"categories_segments":[],"categories_sizes":[],"default_left":[0,0,0,0,0,0,0,0,0,0,0,0,0,0,0,0,0,0,0,0,0,0,0,0,0],"id":18,"left_children":[1,3,5,7,9,11,13,-1,15,-1,17,19,-1,-1,21,-1,-1,23,-1,-1,-1,-1,-1,-1,-1],"loss_changes":[7.0493243E2,4.2282135E1,6.780115E1,1.7563171E0,2.556236E1,2.1583221E1,4.1411873E1,0E0,6.7669973E0,0E0,9.664798E0,2.9214783E0,0E0,0E0,1.6435614E0,0E0,0E0,3.0650656E0,0E0,0E0,0E0,0E0,0E0,0E0,0E0],"parents":[2147483647,0,0,1,1,2,2,3,3,4,4,5,5,6,6,8,8,10,10,11,11,14,14,17,17],"right_children":[2,4,6,8,10,12,14,-1,16,-1,18,20,-1,-1,22,-1,-1,24,-1,-1,-1,-1,-1,-1,-1],"split_conditions":[-3.9533157E-2,-2.0544267E-1,6.7341655E-2,1.1595838E0,-1.0565443E-1,3.4002159E0,-1.5765563E-1,1.102063E-1,-1.6222878E-1,8.443402E-2,-2.2769071E-1,-4.2610016E-1,8.523648E-2,1.0377431E-1,2.0030153E-1,9.4091006E-2,-4.5196168E-2,6.7341655E-2,-1.00685954E-1,-0E0,-1.07857645E-1,-1.9839384E-4,-9.3981154E-2,-1.9810323E-2,7.8277886E-2],"split_indices":[1,2,15,6,1,23,8,0,3,0,8,9,0,0,8,0,0,15,0,0,0,0,0,0,0],"split_type":[0,0,0,0,0,0,0,0,0,0,0,0,0,0,0,0,0,0,0,0,0,0,0,0,0],"sum_hessian":[8.6296326E2,4.193213E2,4.43642E2,3.6648322E2,5.283808E1,3.9336734E2,5.027467E1,3.52674E2,1.3809181E1,2.4512835E1,2.8325245E1,3.8838028E2,4.9870496E0,2.8005426E1,2.2269245E1,1.0140632E1,3.66855E0,1.0471481E1,1.7853764E1,3.4633934E0,3.8491687E2,4.6599116E0,1.7609333E1,6.290363E0,4.181119E0],"tree_param":{"num_deleted":"0","num_feature":"26","num_nodes":"25","size_leaf_vector":"1"}},{"base_weights":[2.3532028E-3,9.299716E-1,-8.67381E-1,1.0792604E-1,8.182505E-2,-9.771871E-1,-0E0,5.3307986E-1,-9.4732285E-2,-1.0067643E0,7.5004354E-2,1.1041101E-1,-9.3198046E-2,9.891565E-2,-3.9564364E-2,-1.9477395E-2,-1.04527384E-1,7.458652E-2,-5.0563775E-2],"categories":[],"categories_nodes":[],"categories_segments":[],"categories_sizes":[],"default_left":[0,0,0,0,0,0,0,0,0,0,0,0,0,0,0,0,0,0,0],"id":19,"left_children":[1,3,5,-1,7,9,11,13,-1,15,-1,-1,-1,-1,17,-1,-1,-1,-1],"loss_changes":[6.341869E2,3.7543518E1,3.8351166E1,0E0,2.24264E1,1.9152557E1,4.6495274E1,9.602135E0,0E0,1.5401001E0,0E0,0E0,0E0,0E0,5.3686604E0,0E0,0E0,0E0,0E0],"parents":[2147483647,0,0,1,1,2,2,4,4,5,5,6,6,7,7,9,9,14,14],"right_children":[2,4,6,-1,8,10,12,14,-1,16,-1,-1,-1,-1,18,-1,-1,-1,-1],"split_conditions":[-3.9533157E-2,-2.0544267E-1,1.2200049E0,1.0792604E-1,5.3998524E-1,3.4002159E0,7.2166276E-1,-1.0565443E-1,-9.4732285E-2,-3.3136952E-1,7.5004354E-2,1.1041101E-1,-9.3198046E-2,9.891565E-2,-2.7868322E-1,-1.9477395E-2,-1.04527384E-1,7.458652E-2,-5.0563775E-2],"split_indices":[1,2,17,0,11,23,10,1,0,12,0,0,0,0,0,0,0,0,0],"split_type":[0,0,0,0,0,0,0,0,0,0,0,0,0,0,0,0,0,0,0],"sum_hessian":[7.8397015E2,3.798653E2,4.041049E2,3.3161395E2,4.8251343E1,3.5833725E2,4.5767654E1,3.4274647E1,1.3976697E1,3.5319858E2,5.1386576E0,2.0742872E1,2.5024782E1,2.0164305E1,1.4110339E1,5.692503E0,3.4750607E2,4.220616E0,9.889724E0],"tree_param":{"num_deleted":"0","num_feature":"26","num_nodes":"19","size_leaf_vector":"1"}},{"base_weights":[4.631627E-3,9.104866E-1,-8.414054E-1,9.9744004E-1,-1.4207341E-1,-9.8727804E-1,2.2566143E-1,1.0140662E0,-2.5600782E-3,5.4548424E-1,-1.0045147E-1,-1.0437213E-1,7.760367E-2,1.02138765E-1,-7.7627635E-1,1.0853177E-1,6.762926E-1,9.42662E-2,-2.4477618E-2,-0E0,-9.4260946E-2,-0E0,1.0393311E-1,7.2062E-2,-8.670754E-2],"categories":[],"categories_nodes":[],"categories_segments":[],"categories_sizes":[],"default_left":[0,0,0,0,0,0,0,0,0,0,0,0,0,0,0,0,0,0,0,0,0,0,0,0,0],"id":20,"left_children":[1,3,5,7,9,11,13,15,-1,17,-1,-1,-1,-1,19,-1,21,-1,-1,-1,-1,23,-1,-1,-1],"loss_changes":[5.545185E2,3.299762E1,5.9104797E1,6.492981E0,1.631005E1,1.7105713E1,3.5574192E1,2.105896E0,0E0,5.1508713E0,0E0,0E0,0E0,0E0,1.6555929E0,0E0,1.0096289E1,0E0,0E0,0E0,0E0,8.721057E0,0E0,0E0,0E0],"parents":[2147483647,0,0,1,1,2,2,3,3,4,4,5,5,6,6,7,7,9,9,14,14,16,16,21,21],"right_children":[2,4,6,8,10,12,14,16,-1,18,-1,-1,-1,-1,20,-1,22,-1,-1,-1,-1,24,-1,-1,-1],"split_conditions":[-3.8483612E-2,5.3998524E-1,6.7341655E-2,3.8558075E-1,-2.3722592E-1,3.4002159E0,-1.5765563E-1,-2.4759024E-1,-2.5600782E-3,1.1595838E0,-1.0045147E-1,-1.0437213E-1,7.760367E-2,1.02138765E-1,2.0030153E-1,1.0853177E-1,6.7341655E-2,9.42662E-2,-2.4477618E-2,-0E0,-9.4260946E-2,-1.0565443E-1,1.0393311E-1,7.2062E-2,-8.670754E-2],"split_indices":[1,11,15,9,0,23,8,0,0,6,0,0,0,0,8,0,15,0,0,0,0,1,0,0,0],"split_type":[0,0,0,0,0,0,0,0,0,0,0,0,0,0,0,0,0,0,0,0,0,0,0,0,0],"sum_hessian":[7.2143713E2,3.4891675E2,3.725204E2,3.231895E2,2.5727238E1,3.2858368E2,4.3936707E1,3.1895657E2,4.2329316E0,1.3667203E1,1.2060035E1,3.2434848E2,4.235223E0,2.5424772E1,1.8511934E1,2.7946112E2,3.949545E1,9.992038E0,3.6751647E0,3.5611005E0,1.4950833E1,1.2504399E1,2.6991049E1,6.328848E0,6.1755514E0],"tree_param":{"num_deleted":"0","num_feature":"26","num_nodes":"25","size_leaf_vector":"1"}},{"base_weights":[-0E0,8.9339834E-1,-8.338331E-1,1.0192506E0,5.350364E-2,-9.811334E-1,2.299111E-1,1.0801218E-1,5.542455E-1,4.8952556E-1,-9.070315E-2,-1.0110843E0,7.604834E-2,9.598901E-2,-6.779812E-1,-4.5810483E-2,9.696692E-2,9.408645E-2,-2.66535E-3,-1.0523281E-1,-0E0,-0E0,-8.543675E-2,6.91631E-2,-3.7462366E-1,-7.04689E-2,1.1881713E-2],"categories":[],"categories_nodes":[],"categories_segments":[],"categories_sizes":[],"default_left":[0,0,0,0,0,0,0,0,0,0,0,0,0,0,0,0,0,0,0,0,0,0,0,0,0,0,0],"id":21,"left_children":[1,3,5,7,9,11,13,-1,15,17,-1,19,-1,-1,21,-1,-1,-1,23,-1,-1,-1,-1,-1,25,-1,-1],"loss_changes":[4.932969E2,3.2686966E1,5.464235E1,1.905304E0,1.7895039E1,1.6583008E1,2.7532253E1,0E0,9.317209E0,7.417515E0,0E0,4.279846E0,0E0,0E0,1.7744446E0,0E0,0E0,0E0,3.5885563E0,0E0,0E0,0E0,0E0,0E0,2.2878428E0,0E0,0E0],"parents":[2147483647,0,0,1,1,2,2,3,3,4,4,5,5,6,6,8,8,9,9,11,11,14,14,18,18,24,24],"right_children":[2,4,6,8,10,12,14,-1,16,18,-1,20,-1,-1,22,-1,-1,-1,24,-1,-1,-1,-1,-1,26,-1,-1],"split_conditions":[-3.8483612E-2,-2.0544267E-1,6.7341655E-2,-2.4759024E-1,5.3998524E-1,3.4002159E0,-1.5765563E-1,1.0801218E-1,6.7341655E-2,-1.0565443E-1,-9.070315E-2,6.991618E-1,7.604834E-2,9.598901E-2,7.2166276E-1,-4.5810483E-2,9.696692E-2,9.408645E-2,-2.8904754E-1,-1.0523281E-1,-0E0,-0E0,-8.543675E-2,6.91631E-2,6.7341655E-2,-7.04689E-2,1.1881713E-2],"split_indices":[1,2,15,0,11,23,8,0,15,1,0,24,0,0,10,0,0,0,0,0,0,0,0,0,15,0,0],"split_type":[0,0,0,0,0,0,0,0,0,0,0,0,0,0,0,0,0,0,0,0,0,0,0,0,0,0,0],"sum_hessian":[6.601826E2,3.1856046E2,3.4162213E2,2.7585742E2,4.270303E1,3.0093808E2,4.068408E1,2.5524672E2,2.061071E1,3.0164837E1,1.2538194E1,2.9675296E2,4.185106E0,2.3501564E1,1.7182512E1,5.03507E0,1.557564E1,1.6762001E1,1.3402836E1,2.935718E2,3.1811504E0,3.5172923E0,1.366522E1,3.5454404E0,9.857395E0,6.992634E0,2.8647614E0],"tree_param":{"num_deleted":"0","num_feature":"26","num_nodes":"27","size_leaf_vector":"1"}},{"base_weights":[6.766596E-4,8.7894934E-1,-8.159094E-1,1.0392239E-1,2.8218772E-2,-9.49895E-1,1.9193688E-1,-5.255277E-1,8.361648E-2,-9.6280265E-1,-0E0,9.5885314E-2,-7.886625E-2,4.0067565E-2,-9.153738E-2,-0E0,-1.0039949E-1],"categories":[],"categories_nodes":[],"categories_segments":[],"categories_sizes":[],"default_left":[0,0,0,0,0,0,0,0,0,0,0,0,0,0,0,0,0],"id":22,"left_children":[1,3,5,-1,7,9,11,13,-1,15,-1,-1,-1,-1,-1,-1,-1],"loss_changes":[4.32444E2,3.1637741E1,4.302838E1,0E0,1.8583607E1,4.0338593E0,2.6880299E1,8.850875E0,0E0,3.776291E0,0E0,0E0,0E0,0E0,0E0,0E0,0E0],"parents":[2147483647,0,0,1,1,2,2,4,4,5,5,6,6,7,7,9,9],"right_children":[2,4,6,-1,8,10,12,14,-1,16,-1,-1,-1,-1,-1,-1,-1],"split_conditions":[-3.9533157E-2,1.1595838E0,6.7341655E-2,1.0392239E-1,6.7341655E-2,6.991618E-1,-1.5765563E-1,-1.0565443E-1,8.361648E-2,-1.6228482E-1,-0E0,9.5885314E-2,-7.886625E-2,4.0067565E-2,-9.153738E-2,-0E0,-1.0039949E-1],"split_indices":[1,6,15,0,15,24,8,1,0,3,0,0,0,0,0,0,0],"split_type":[0,0,0,0,0,0,0,0,0,0,0,0,0,0,0,0,0],"sum_hessian":[6.0086383E2,2.9003067E2,3.1083313E2,2.4993648E2,4.0094208E1,2.7525757E2,3.5575573E1,2.2985983E1,1.7108225E1,2.7225125E2,3.0062978E0,2.0656988E1,1.4918586E1,5.7767105E0,1.7209272E1,3.726096E0,2.6852518E2],"tree_param":{"num_deleted":"0","num_feature":"26","num_nodes":"17","size_leaf_vector":"1"}},{"base_weights":[4.511121E-3,-6.9875664E-1,9.0927255E-1,-8.9057636E-1,1.0434217E-1,1.0160651E0,-4.8932582E-1,4.2080492E-1,-9.471902E-1,1.0664719E-1,3.2043602E-2,1.7179364E-2,-7.8475006E-2,-2.7135327E-2,8.708341E-2,2.5528204E-2,-9.6680105E-1,-1.0116419E-1,6.4566988E-3],"categories":[],"categories_nodes":[],"categories_segments":[],"categories_sizes":[],"default_left":[0,0,0,0,0,0,0,0,0,0,0,0,0,0,0,0,0,0,0],"id":23,"left_children":[1,3,5,7,-1,9,11,13,15,-1,-1,-1,-1,-1,-1,-1,17,-1,-1],"loss_changes":[3.560447E2,1.04036514E2,3.763347E1,2.1960037E1,0E0,1.8067932E0,3.8420897E0,4.213504E0,7.333359E0,0E0,0E0,0E0,0E0,0E0,0E0,0E0,5.743988E0,0E0,0E0],"parents":[2147483647,0,0,1,1,2,2,3,3,5,5,6,6,7,7,8,8,16,16],"right_children":[2,4,6,8,-1,10,12,14,16,-1,-1,-1,-1,-1,-1,-1,18,-1,-1],"split_conditions":[6.7341655E-2,3.4002159E0,2.0030153E-1,-2.8904754E-1,1.0434217E-1,-1.1096556E-1,-2.4759024E-1,-3.2014054E-1,-1.6222878E-1,1.0664719E-1,3.2043602E-2,1.7179364E-2,-7.8475006E-2,-2.7135327E-2,8.708341E-2,2.5528204E-2,6.991618E-1,-1.0116419E-1,6.4566988E-3],"split_indices":[15,23,8,0,0,8,0,0,3,0,0,0,0,0,0,0,24,0,0],"split_type":[0,0,0,0,0,0,0,0,0,0,0,0,0,0,0,0,0,0,0],"sum_hessian":[5.572203E2,3.1304956E2,2.441707E2,2.8248203E2,3.0567543E1,2.27749E2,1.6421715E1,1.0713828E1,2.717682E2,2.1925339E2,8.495595E0,3.9133563E0,1.2508358E1,3.3881972E0,7.325631E0,3.3995078E0,2.6836868E2,2.64909E2,3.459674E0],"tree_param":{"num_deleted":"0","num_feature":"26","num_nodes":"19","size_leaf_vector":"1"}},{"base_weights":[1.0398996E-2,8.709405E-1,-7.8087676E-1,9.9612373E-1,6.965398E-2,-9.2752904E-1,1.8872543E-1,1.0399877E-1,2.3339891E-3,4.8435017E-1,-8.649996E-2,-9.6508014E-1,7.472119E-2,6.97904E-1,-6.397503E-1,8.995739E-2,-0E0,-9.7664046E-1,-0E0,9.3878664E-2,-0E0,-0E0,-8.861942E-2,7.753105E-2,-4.4299312E-2,-1.01617314E-1,-0E0],"categories":[],"categories_nodes":[],"categories_segments":[],"categories_sizes":[],"default_left":[0,0,0,0,0,0,0,0,0,0,0,0,0,0,0,0,0,0,0,0,0,0,0,0,0,0,0],"id":24,"left_children":[1,3,5,7,9,11,13,-1,-1,15,-1,17,-1,19,21,-1,23,25,-1,-1,-1,-1,-1,-1,-1,-1,-1],"loss_changes":[3.4798306E2,2.3507019E1,3.8657455E1,2.1653442E0,1.3397138E1,1.5337036E1,1.5217188E1,0E0,0E0,5.5546803E0,0E0,2.3015594E0,0E0,4.0616827E0,2.1056137E0,0E0,3.8142698E0,2.3983307E0,0E0,0E0,0E0,0E0,0E0,0E0,0E0,0E0,0E0],"parents":[2147483647,0,0,1,1,2,2,3,3,4,4,5,5,6,6,9,9,11,11,13,13,14,14,16,16,17,17],"right_children":[2,4,6,8,10,12,14,-1,-1,16,-1,18,-1,20,22,-1,24,26,-1,-1,-1,-1,-1,-1,-1,-1,-1],"split_conditions":[-3.9533157E-2,-2.0544267E-1,6.7341655E-2,8.510285E-1,5.3998524E-1,3.4002159E0,7.2166276E-1,1.0399877E-1,2.3339891E-3,-1.0565443E-1,-8.649996E-2,6.991618E-1,7.472119E-2,-1.5729687E-1,7.770179E-2,8.995739E-2,-2.8904754E-1,2.6063645E-1,-0E0,9.3878664E-2,-0E0,-0E0,-8.861942E-2,7.753105E-2,-4.4299312E-2,-1.01617314E-1,-0E0],"split_indices":[1,2,15,0,11,23,10,0,0,1,0,24,0,3,9,0,0,1,0,0,0,0,0,0,0,0,0],"split_type":[0,0,0,0,0,0,0,0,0,0,0,0,0,0,0,0,0,0,0,0,0,0,0,0,0,0,0],"sum_hessian":[5.0889227E2,2.4431311E2,2.6457916E2,2.1004501E2,3.42681E1,2.3072366E2,3.385551E1,2.0573108E2,4.3139305E0,2.4604649E1,9.663452E0,2.2658708E2,4.1365747E0,2.1790274E1,1.2065239E1,1.4089848E1,1.0514801E1,2.2364381E2,2.9432647E0,1.7176111E1,4.614162E0,3.041602E0,9.023637E0,2.8654947E0,7.649307E0,2.2074883E2,2.894999E0],"tree_param":{"num_deleted":"0","num_feature":"26","num_nodes":"27","size_leaf_vector":"1"}},{"base_weights":[6.4794095E-3,8.4432536E-1,-7.648601E-1,2.430431E-1,1.0446563E-1,-9.155677E-1,1.8218544E-1,-8.127652E-1,6.9583255E-1,-9.5218337E-1,7.017803E-2,9.029525E-2,-5.725607E-1,-0E0,-1.2608717E-1,9.783664E-2,-2.5299206E-1,-9.694884E-1,-0E0,-0E0,-8.274245E-2,1.3298693E-2,-6.816506E-2,-0E0,-1.00912236E-1],"categories":[],"categories_nodes":[],"categories_segments":[],"categories_sizes":[],"default_left":[0,0,0,0,0,0,0,0,0,0,0,0,0,0,0,0,0,0,0,0,0,0,0,0,0],"id":25,"left_children":[1,3,5,7,-1,9,11,13,15,17,-1,-1,19,-1,-1,-1,21,23,-1,-1,-1,-1,-1,-1,-1],"loss_changes":[3.0320697E2,2.1827362E1,3.5649506E1,2.564972E1,0E0,1.3279724E1,1.8359186E1,5.2984715E0,1.0160664E1,4.1268463E0,0E0,0E0,1.8329558E0,0E0,0E0,0E0,1.8702364E0,1.9412537E0,0E0,0E0,0E0,0E0,0E0,0E0,0E0],"parents":[2147483647,0,0,1,1,2,2,3,3,5,5,6,6,7,7,8,8,9,9,12,12,16,16,17,17],"right_children":[2,4,6,8,-1,10,12,14,16,18,-1,-1,20,-1,-1,-1,22,24,-1,-1,-1,-1,-1,-1,-1],"split_conditions":[-3.8483612E-2,6.7341655E-2,6.7341655E-2,5.923197E-1,1.0446563E-1,3.4002159E0,-1.5765563E-1,-2.527724E-1,-6.224319E-2,6.991618E-1,7.017803E-2,9.029525E-2,7.6963278E-3,-0E0,-1.2608717E-1,9.783664E-2,-1.6116393E-1,-1.6228482E-1,-0E0,-0E0,-8.274245E-2,1.3298693E-2,-6.816506E-2,-0E0,-1.00912236E-1],"split_indices":[1,15,15,7,0,23,8,0,9,24,0,0,1,0,0,0,3,3,0,0,0,0,0,0,0],"split_type":[0,0,0,0,0,0,0,0,0,0,0,0,0,0,0,0,0,0,0,0,0,0,0,0,0],"sum_hessian":[4.670257E2,2.2441704E2,2.4260866E2,5.167995E1,1.7273709E2,2.1021164E2,3.2397007E1,1.462846E1,3.705149E1,2.0649525E2,3.7163894E0,1.743292E1,1.4964087E1,5.250533E0,9.377927E0,2.998235E1,7.0691423E0,2.0354417E2,2.9510863E0,5.0624256E0,9.901661E0,2.7964597E0,4.2726827E0,3.010971E0,2.005332E2],"tree_param":{"num_deleted":"0","num_feature":"26","num_nodes":"25","size_leaf_vector":"1"}},{"base_weights":[1.124153E-2,9.604481E-1,-6.2747693E-1,1.032204E-1,1.1022726E-1,-0E0,-9.6083015E-1,8.092104E-2,-7.788E-2,-4.5583704E-1,1.0726277E-1,-0E0,-1.0138205E-1,-6.5944755E-1,9.3676165E-2,1.06198035E-1,-7.909818E-1,1.0010351E-1,-6.306649E-2,-9.435117E-2,-4.4600584E-2,3.9792873E-2,-6.918255E-2],"categories":[],"categories_nodes":[],"categories_segments":[],"categories_sizes":[],"default_left":[0,0,0,0,0,0,0,0,0,0,0,0,0,0,0,0,0,0,0,0,0,0,0],"id":26,"left_children":[1,3,5,-1,7,9,11,-1,-1,13,-1,-1,-1,15,-1,17,19,-1,-1,-1,21,-1,-1],"loss_changes":[2.6239148E2,5.2817993E0,5.3770416E1,0E0,6.9387236E0,4.3487522E1,4.7581635E0,0E0,0E0,1.8144733E1,0E0,0E0,0E0,6.4674625E0,0E0,6.0368123E0,3.7291412E0,0E0,0E0,0E0,3.086186E0,0E0,0E0],"parents":[2147483647,0,0,1,1,2,2,4,4,5,5,6,6,9,9,13,13,15,15,16,16,20,20],"right_children":[2,4,6,-1,8,10,12,-1,-1,14,-1,-1,-1,16,-1,18,20,-1,-1,-1,22,-1,-1],"split_conditions":[-7.416811E-2,5.3998524E-1,5.3998524E-1,1.032204E-1,-2.4759024E-1,1.2200049E0,-2.838654E-1,8.092104E-2,-7.788E-2,3.4002159E0,1.0726277E-1,-0E0,-1.0138205E-1,-2.65609E-1,9.3676165E-2,-1.0463907E-1,1.0227568E0,1.0010351E-1,-6.306649E-2,-9.435117E-2,1.6917482E-1,3.9792873E-2,-6.918255E-2],"split_indices":[1,11,11,0,0,17,0,0,0,23,0,0,0,10,0,14,18,0,0,0,8,0,0],"split_type":[0,0,0,0,0,0,0,0,0,0,0,0,0,0,0,0,0,0,0,0,0,0,0],"sum_hessian":[4.3024194E2,1.7346213E2,2.5677982E2,1.637396E2,9.722532E0,8.960432E1,1.6717549E2,6.1409116E0,3.5816202E0,6.2863045E1,2.6741272E1,3.6469088E0,1.6352858E2,5.578594E1,7.077108E0,7.129286E0,4.865665E1,3.6797771E0,3.4495087E0,4.0283703E1,8.372949E0,4.281358E0,4.0915904E0],"tree_param":{"num_deleted":"0","num_feature":"26","num_nodes":"23","size_leaf_vector":"1"}},{"base_weights":[-0E0,8.1668174E-1,-7.6056015E-1,9.7908926E-1,5.8691476E-2,-9.0707535E-1,1.526828E-1,1.0326371E-1,-0E0,-5.593058E-1,8.242112E-2,-9.265042E-1,-0E0,7.9927005E-2,-5.2509636E-2,1.3504392E-2,-1.0245563E-1,-0E0,-9.687245E-2],"categories":[],"categories_nodes":[],"categories_segments":[],"categories_sizes":[],"default_left":[0,0,0,0,0,0,0,0,0,0,0,0,0,0,0,0,0,0,0],"id":27,"left_children":[1,3,5,7,9,11,13,-1,-1,15,-1,17,-1,-1,-1,-1,-1,-1,-1],"loss_changes":[2.4663315E2,2.2446075E1,2.8458214E1,2.995758E0,1.7139122E1,3.878357E0,1.2457793E1,0E0,0E0,6.8423753E0,0E0,2.5899963E0,0E0,0E0,0E0,0E0,0E0,0E0,0E0],"parents":[2147483647,0,0,1,1,2,2,3,3,4,4,5,5,6,6,9,9,11,11],"right_children":[2,4,6,8,10,12,14,-1,-1,16,-1,18,-1,-1,-1,-1,-1,-1,-1],"split_conditions":[-3.8483612E-2,-2.4759024E-1,6.7341655E-2,1.6348456E-1,6.7341655E-2,6.991618E-1,-1.5765563E-1,1.0326371E-1,-0E0,-1.0565443E-1,8.242112E-2,-2.8904754E-1,-0E0,7.9927005E-2,-5.2509636E-2,1.3504392E-2,-1.0245563E-1,-0E0,-9.687245E-2],"split_indices":[1,0,15,2,15,24,8,0,0,1,0,0,0,0,0,0,0,0,0],"split_type":[0,0,0,0,0,0,0,0,0,0,0,0,0,0,0,0,0,0,0],"sum_hessian":[3.9512082E2,1.8994862E2,2.0517218E2,1.5513744E2,3.4811188E1,1.7772495E2,2.7447237E1,1.5030743E2,4.8299994E0,1.843102E1,1.6380169E1,1.7482533E2,2.899617E0,1.47966175E1,1.26506195E1,6.5630193E0,1.1868001E1,2.937924E0,1.718874E2],"tree_param":{"num_deleted":"0","num_feature":"26","num_nodes":"19","size_leaf_vector":"1"}},{"base_weights":[-0E0,9.48859E-1,-6.2075514E-1,1.0190692E-1,1.8408671E-2,-2.6105123E-2,-9.40082E-1,-4.2717424E-1,9.4228417E-1,-0E0,-9.962892E-2,-5.912005E-1,8.539819E-2,1.083843E-1,-0E0,1.1520284E-2,-7.7534866E-1,-0E0,-8.8841367E-1,-1.02556214E-1,-5.383721E-3],"categories":[],"categories_nodes":[],"categories_segments":[],"categories_sizes":[],"default_left":[0,0,0,0,0,0,0,0,0,0,0,0,0,0,0,0,0,0,0,0,0],"id":28,"left_children":[1,3,5,-1,-1,7,9,11,13,-1,-1,15,-1,-1,-1,-1,17,-1,19,-1,-1],"loss_changes":[2.1500824E2,3.409134E0,4.0879974E1,0E0,0E0,3.0623909E1,4.7720566E0,1.2093096E1,1.9177227E0,0E0,0E0,7.4615498E0,0E0,0E0,0E0,0E0,4.1143875E0,0E0,2.3568134E0,0E0,0E0],"parents":[2147483647,0,0,1,1,2,2,5,5,6,6,7,7,8,8,11,11,16,16,18,18],"right_children":[2,4,6,-1,-1,8,10,12,14,-1,-1,16,-1,-1,-1,-1,18,-1,20,-1,-1],"split_conditions":[-7.416811E-2,2.9653698E-1,5.3998524E-1,1.0190692E-1,1.8408671E-2,1.2200049E0,-2.838654E-1,1.4693663E0,-2.2769071E-1,-0E0,-9.962892E-2,-2.4759024E-1,8.539819E-2,1.083843E-1,-0E0,1.1520284E-2,-2.65609E-1,-0E0,1.0227568E0,-1.02556214E-1,-5.383721E-3],"split_indices":[1,0,11,0,0,17,0,22,8,0,0,0,0,0,0,0,10,0,18,0,0],"split_type":[0,0,0,0,0,0,0,0,0,0,0,0,0,0,0,0,0,0,0,0,0],"sum_hessian":[3.628185E2,1.4349419E2,2.1932434E2,1.3452977E2,8.964403E0,7.8068825E1,1.4125551E2,5.631147E1,2.1757359E1,3.3221276E0,1.379334E2,5.0970543E1,5.3409247E0,1.8900972E1,2.8563867E0,9.569353E0,4.140119E1,4.8958797E0,3.650531E1,3.109174E1,5.413571E0],"tree_param":{"num_deleted":"0","num_feature":"26","num_nodes":"21","size_leaf_vector":"1"}},{"base_weights":[5.465281E-3,9.39342E-1,-5.906046E-1,1.01369955E-1,1.8311644E-1,-8.1983626E-1,3.4441343E-1,-1.8916678E-2,7.036452E-2,-8.9533514E-1,8.812358E-2,9.012893E-2,-5.618224E-1,-9.6320415E-1,-1.707998E-1,-0E0,-8.21463E-2,-0E0,-1.0159107E-1,1.1854992E-1,-7.104464E-2],"categories":[],"categories_nodes":[],"categories_segments":[],"categories_sizes":[],"default_left":[0,0,0,0,0,0,0,0,0,0,0,0,0,0,0,0,0,0,0,0,0],"id":29,"left_children":[1,3,5,-1,7,9,11,-1,-1,13,-1,-1,15,17,19,-1,-1,-1,-1,-1,-1],"loss_changes":[1.8801834E2,3.3507996E0,4.4721916E1,0E0,2.47604E0,2.1820526E1,2.0234257E1,0E0,0E0,6.594925E0,0E0,0E0,1.812356E0,3.5750885E0,1.1477338E1,0E0,0E0,0E0,0E0,0E0,0E0],"parents":[2147483647,0,0,1,1,2,2,4,4,5,5,6,6,9,9,12,12,13,13,14,14],"right_children":[2,4,6,-1,8,10,12,-1,-1,14,-1,-1,16,18,20,-1,-1,-1,-1,-1,-1],"split_conditions":[-7.416811E-2,2.9653698E-1,6.7341655E-2,1.01369955E-1,6.7341655E-2,3.4002159E0,-1.5765563E-1,-1.8916678E-2,7.036452E-2,1.2200049E0,8.812358E-2,9.012893E-2,-2.0544267E-1,-2.838654E-1,-2.1990904E-1,-0E0,-8.21463E-2,-0E0,-1.0159107E-1,1.1854992E-1,-7.104464E-2],"split_indices":[1,0,15,0,15,23,8,0,0,17,0,0,2,0,8,0,0,0,0,0,0],"split_type":[0,0,0,0,0,0,0,0,0,0,0,0,0,0,0,0,0,0,0,0,0],"sum_hessian":[3.3513638E2,1.3097469E2,2.041617E2,1.218576E2,9.11709E0,1.6489476E2,3.9266937E1,4.5194454E0,4.597645E0,1.5879474E2,6.100025E0,2.5429886E1,1.3837052E1,1.4366852E2,1.5126217E1,4.6705894E0,9.166464E0,3.5728576E0,1.4009566E2,3.3953176E0,1.17309E1],"tree_param":{"num_deleted":"0","num_feature":"26","num_nodes":"21","size_leaf_vector":"1"}},{"base_weights":[1.7839966E-2,7.757784E-1,-6.740136E-1,9.564738E-1,4.2874165E-2,-8.234977E-1,1.328114E-1,1.01989836E-1,-0E0,-4.7815725E-1,7.626501E-2,-8.679042E-1,6.1487995E-2,5.6461763E-1,-6.0492743E-2,-1.1015109E-1,-0E0,-9.8265715E-2,-2.8496727E-1,9.672003E-2,-2.6786292E-2,6.579727E-2,-7.142103E-2,1.741071E-1,-8.7828256E-2],"categories":[],"categories_nodes":[],"categories_segments":[],"categories_sizes":[],"default_left":[0,0,0,0,0,0,0,0,0,0,0,0,0,0,0,0,0,0,0,0,0,0,0,0,0],"id":30,"left_children":[1,3,5,7,9,11,13,-1,-1,15,-1,17,-1,19,-1,-1,21,-1,23,-1,-1,-1,-1,-1,-1],"loss_changes":[1.6351491E2,1.8773582E1,2.0349426E1,3.1812286E0,1.2145463E1,9.501854E0,8.16957E0,0E0,0E0,5.3742228E0,0E0,5.444519E0,0E0,6.225556E0,0E0,0E0,5.2018385E0,0E0,2.38373E1,0E0,0E0,0E0,0E0,0E0,0E0],"parents":[2147483647,0,0,1,1,2,2,3,3,4,4,5,5,6,6,9,9,11,11,13,13,16,16,18,18],"right_children":[2,4,6,8,10,12,14,-1,-1,16,-1,18,-1,20,-1,-1,22,-1,24,-1,-1,-1,-1,-1,-1],"split_conditions":[-3.8483612E-2,-2.4759024E-1,6.7341655E-2,4.0508818E-2,6.7341655E-2,3.4002159E0,1.770498E-1,1.01989836E-1,-0E0,5.923197E-1,7.626501E-2,1.0605363E-2,6.1487995E-2,1.16682E0,-6.0492743E-2,-1.1015109E-1,-6.224319E-2,-9.8265715E-2,-1.7419918E-1,9.672003E-2,-2.6786292E-2,6.579727E-2,-7.142103E-2,1.741071E-1,-8.7828256E-2],"split_indices":[1,0,15,2,15,23,16,0,0,7,0,24,0,7,0,0,9,0,9,0,0,0,0,0,0],"split_type":[0,0,0,0,0,0,0,0,0,0,0,0,0,0,0,0,0,0,0,0,0,0,0,0,0],"sum_hessian":[3.0961377E2,1.4835892E2,1.6125485E2,1.1770947E2,3.0649446E1,1.3704224E2,2.4212618E1,1.1256715E2,5.1423264E0,1.6950634E1,1.36988125E1,1.3393335E2,3.1088796E0,1.6121635E1,8.090982E0,7.2456274E0,9.705007E0,1.14366806E2,1.9566544E1,1.1780631E1,4.3410044E0,5.2871976E0,4.417809E0,3.546051E0,1.6020493E1],"tree_param":{"num_deleted":"0","num_feature":"26","num_nodes":"25","size_leaf_vector":"1"}},{"base_weights":[1.007035E-2,7.6166767E-1,-6.7339116E-1,9.439155E-1,7.1295258E-3,-8.1797147E-1,1.2988327E-1,1.01509854E-1,-0E0,-4.5933947E-1,6.454453E-1,-8.6546177E-1,-4.2500358E-2,6.6113526E-1,-8.21767E-2,-1.1156406E-1,-0E0,-0E0,8.6673066E-2,-8.858626E-1,-0E0,7.335405E-2,-7.3143534E-2,8.859929E-2,-0E0,5.6048356E-2,-4.4882648E-2,-9.65364E-2,-3.7354332E-1,3.45531E-2,-6.9420956E-2],"categories":[],"categories_nodes":[],"categories_segments":[],"categories_sizes":[],"default_left":[0,0,0,0,0,0,0,0,0,0,0,0,0,0,0,0,0,0,0,0,0,0,0,0,0,0,0,0,0,0,0],"id":31,"left_children":[1,3,5,7,9,11,13,-1,-1,15,17,19,21,23,-1,-1,25,-1,-1,27,-1,-1,-1,-1,-1,-1,-1,-1,29,-1,-1],"loss_changes":[1.4742517E2,1.7950066E1,1.8142265E1,3.9886856E0,9.043166E0,3.7949524E0,1.1590955E1,0E0,0E0,5.282427E0,1.8478723E0,1.6394196E0,5.3783965E0,2.6220803E0,0E0,0E0,2.66431E0,0E0,0E0,1.5352402E0,0E0,0E0,0E0,0E0,0E0,0E0,0E0,0E0,3.6197147E0,0E0,0E0],"parents":[2147483647,0,0,1,1,2,2,3,3,4,4,5,5,6,6,9,9,10,10,11,11,12,12,13,13,16,16,19,19,28,28],"right_children":[2,4,6,8,10,12,14,-1,-1,16,18,20,22,24,-1,-1,26,-1,-1,28,-1,-1,-1,-1,-1,-1,-1,-1,30,-1,-1],"split_conditions":[-3.9533157E-2,-2.3722592E-1,6.7341655E-2,4.0508818E-2,6.7341655E-2,9.161201E-2,2.0030153E-1,1.01509854E-1,-0E0,5.923197E-1,1.2200049E0,2.0501062E-1,3.6371675E-1,1.770498E-1,-8.21767E-2,-1.1156406E-1,-1.0565443E-1,-0E0,8.6673066E-2,1.4174363E-1,-0E0,7.335405E-2,-7.3143534E-2,8.859929E-2,-0E0,5.6048356E-2,-4.4882648E-2,-9.65364E-2,-1.96564E-1,3.45531E-2,-6.9420956E-2],"split_indices":[1,0,15,2,15,24,8,0,0,7,17,1,8,16,0,0,1,0,0,22,0,0,0,0,0,0,0,0,8,0,0],"split_type":[0,0,0,0,0,0,0,0,0,0,0,0,0,0,0,0,0,0,0,0,0,0,0,0,0,0,0,0,0,0,0],"sum_hessian":[2.8480386E2,1.3625955E2,1.4854433E2,1.0851369E2,2.774586E1,1.26890915E2,2.1653418E1,1.031629E2,5.3507814E0,1.531944E1,1.2426419E1,1.1828252E2,8.608398E0,1.4625204E1,7.0282135E0,6.3985224E0,8.9209175E0,2.9632266E0,9.463193E0,1.149403E2,3.3422139E0,3.330937E0,5.2774615E0,1.1719763E1,2.9054406E0,4.4058867E0,4.5150304E0,1.0165443E2,1.3285877E1,2.9731061E0,1.0312771E1],"tree_param":{"num_deleted":"0","num_feature":"26","num_nodes":"31","size_leaf_vector":"1"}},{"base_weights":[-5.9616687E-3,5.822846E-1,-8.5566336E-1,9.4666295E-2,-2.9943982E-2,3.8426638E-2,-9.602071E-2,-4.3928197E-1,9.121839E-2,-6.077769E-1,7.320964E-2,-0E0,-7.1256176E-2],"categories":[],"categories_nodes":[],"categories_segments":[],"categories_sizes":[],"default_left":[0,0,0,0,0,0,0,0,0,0,0,0,0],"id":32,"left_children":[1,3,5,-1,7,-1,-1,9,-1,11,-1,-1,-1],"loss_changes":[1.3228464E2,3.3104313E1,1.1371796E1,0E0,2.072674E1,0E0,0E0,8.029068E0,0E0,2.3101273E0,0E0,0E0,0E0],"parents":[2147483647,0,0,1,1,2,2,4,4,7,7,9,9],"right_children":[2,4,6,-1,8,-1,-1,10,-1,12,-1,-1,-1],"split_conditions":[5.3998524E-1,-2.4240808E-1,-2.838654E-1,9.4666295E-2,1.2200049E0,3.8426638E-2,-9.602071E-2,3.4002159E0,9.121839E-2,-2.65609E-1,7.320964E-2,-0E0,-7.1256176E-2],"split_indices":[11,0,0,0,17,0,0,23,0,10,0,0,0],"split_type":[0,0,0,0,0,0,0,0,0,0,0,0,0],"sum_hessian":[2.6210626E2,1.5439763E2,1.0770865E2,1.00105644E2,5.429198E1,5.4865446E0,1.022221E2,3.863354E1,1.5658442E1,3.485158E1,3.7819588E0,3.481644E0,3.1369938E1],"tree_param":{"num_deleted":"0","num_feature":"26","num_nodes":"13","size_leaf_vector":"1"}},{"base_weights":[2.4883663E-2,9.122685E-1,-5.221694E-1,9.892948E-2,1.0468134E-1,5.0883185E-2,-8.4677905E-1,6.540765E-2,-3.4614146E-2,-3.081787E-1,1.0228067E-1,-0E0,-9.1228865E-2,-5.84997E-1,1.0374746E-1,-0E0,-7.310039E-2],"categories":[],"categories_nodes":[],"categories_segments":[],"categories_sizes":[],"default_left":[0,0,0,0,0,0,0,0,0,0,0,0,0,0,0,0,0],"id":33,"left_children":[1,3,5,-1,7,9,11,-1,-1,13,-1,-1,-1,15,-1,-1,-1],"loss_changes":[1.19767914E2,2.6852036E0,2.8995281E1,0E0,2.331569E0,1.9503893E1,4.0693207E0,0E0,0E0,1.46403E1,0E0,0E0,0E0,2.2191477E0,0E0,0E0,0E0],"parents":[2147483647,0,0,1,1,2,2,4,4,5,5,6,6,9,9,13,13],"right_children":[2,4,6,-1,8,10,12,-1,-1,14,-1,-1,-1,16,-1,-1,-1],"split_conditions":[-7.416811E-2,5.3998524E-1,-2.1990904E-1,9.892948E-2,-2.527724E-1,1.2200049E0,-2.838654E-1,6.540765E-2,-3.4614146E-2,1.16682E0,1.0228067E-1,-0E0,-9.1228865E-2,-2.4759024E-1,1.0374746E-1,-0E0,-7.310039E-2],"split_indices":[1,11,8,0,0,17,0,0,0,7,0,0,0,0,0,0,0],"split_type":[0,0,0,0,0,0,0,0,0,0,0,0,0,0,0,0,0],"sum_hessian":[2.4393355E2,9.344562E1,1.5048793E2,8.668029E1,6.7653284E0,5.36503E1,9.683762E1,3.8603814E0,2.904947E0,3.8619305E1,1.5030992E1,3.5913732E0,9.3246254E1,3.298528E1,5.634027E0,6.5989413E0,2.6386337E1],"tree_param":{"num_deleted":"0","num_feature":"26","num_nodes":"17","size_leaf_vector":"1"}},{"base_weights":[2.7837422E-2,9.06563E-1,-5.082556E-1,9.90842E-2,1.6443914E-2,-6.961681E-1,4.0817654E-1,5.820974E-2,-3.3296652E-2,-7.7031285E-1,7.4737474E-2,9.161148E-2,-3.951071E-2,1.5487146E-2,-8.524123E-2],"categories":[],"categories_nodes":[],"categories_segments":[],"categories_sizes":[],"default_left":[0,0,0,0,0,0,0,0,0,0,0,0,0,0,0],"id":34,"left_children":[1,3,5,-1,7,9,11,-1,-1,13,-1,-1,-1,-1,-1],"loss_changes":[1.0709127E2,3.445938E0,2.4681606E1,0E0,1.7823988E0,1.3003159E1,9.866599E0,0E0,0E0,6.897217E0,0E0,0E0,0E0,0E0,0E0],"parents":[2147483647,0,0,1,1,2,2,4,4,5,5,6,6,9,9],"right_children":[2,4,6,-1,8,10,12,-1,-1,14,-1,-1,-1,-1,-1],"split_conditions":[-7.416811E-2,5.3998524E-1,1.2200049E0,9.90842E-2,-2.527724E-1,3.4002159E0,5.3998524E-1,5.820974E-2,-3.3296652E-2,-2.838654E-1,7.4737474E-2,9.161148E-2,-3.951071E-2,1.5487146E-2,-8.524123E-2],"split_indices":[1,11,17,0,0,23,11,0,0,0,0,0,0,0,0],"split_type":[0,0,0,0,0,0,0,0,0,0,0,0,0,0,0],"sum_hessian":[2.2451128E2,8.548867E1,1.3902261E2,7.9220634E1,6.268037E0,1.1644461E2,2.2577993E1,3.2261305E0,3.0419064E0,1.1176592E2,4.678694E0,1.47086525E1,7.869342E0,5.633096E0,1.0613282E2],"tree_param":{"num_deleted":"0","num_feature":"26","num_nodes":"15","size_leaf_vector":"1"}},{"base_weights":[1.1624512E-2,-5.562123E-1,8.14564E-1,-7.237334E-1,9.206571E-2,9.507324E-1,-3.0672759E-2,-8.7984E-1,1.4998051E-2,1.0262497E-1,1.8576175E-2,3.610492E-2,-9.3369496E-1,1.7333333E-1,-7.9494216E-2,-0E0,-1.02297954E-1],"categories":[],"categories_nodes":[],"categories_segments":[],"categories_sizes":[],"default_left":[0,0,0,0,0,0,0,0,0,0,0,0,0,0,0,0,0],"id":35,"left_children":[1,3,5,7,-1,9,-1,11,13,-1,-1,-1,15,-1,-1,-1,-1],"loss_changes":[9.859324E1,3.1048882E1,1.4564911E1,1.3974392E1,0E0,1.6520157E0,0E0,7.1972275E0,2.8244658E1,0E0,0E0,0E0,5.3628693E0,0E0,0E0,0E0,0E0],"parents":[2147483647,0,0,1,1,2,2,3,3,5,5,7,7,8,8,12,12],"right_children":[2,4,6,8,-1,10,-1,12,14,-1,-1,-1,16,-1,-1,-1,-1],"split_conditions":[6.7341655E-2,3.4002159E0,2.0030153E-1,1.0605363E-2,9.206571E-2,-1.5326166E-1,-3.0672759E-2,-4.2610016E-1,-1.7419918E-1,1.0262497E-1,1.8576175E-2,3.610492E-2,-1.0565443E-1,1.7333333E-1,-7.9494216E-2,-0E0,-1.02297954E-1],"split_indices":[15,23,8,24,0,3,0,9,9,0,0,0,1,0,0,0,0],"split_type":[0,0,0,0,0,0,0,0,0,0,0,0,0,0,0,0,0],"sum_hessian":[2.136755E2,1.2463826E2,8.9037254E1,1.1279663E2,1.1841627E1,8.02368E1,8.800454E0,9.404014E1,1.8756489E1,7.410465E1,6.1321435E0,2.954505E0,9.108564E1,6.03541E0,1.2721079E1,5.5999937E0,8.548564E1],"tree_param":{"num_deleted":"0","num_feature":"26","num_nodes":"17","size_leaf_vector":"1"}},{"base_weights":[1.2607122E-2,-5.530884E-1,7.9070365E-1,-7.1416223E-1,8.940016E-2,9.859234E-2,-5.212625E-2,-8.6901337E-1,1.05742505E-2,5.9506573E-2,-3.9688888E-1,-0E0,-9.700862E-2,1.5538532E-1,-7.2328635E-2,-0E0,-6.785409E-2],"categories":[],"categories_nodes":[],"categories_segments":[],"categories_sizes":[],"default_left":[0,0,0,0,0,0,0,0,0,0,0,0,0,0,0,0,0],"id":36,"left_children":[1,3,5,7,-1,-1,9,11,13,-1,15,-1,-1,-1,-1,-1,-1],"loss_changes":[8.6502846E1,2.6324593E1,1.2736481E1,1.234058E1,0E0,0E0,3.071659E0,5.9184265E0,2.1090706E1,0E0,1.6754754E0,0E0,0E0,0E0,0E0,0E0,0E0],"parents":[2147483647,0,0,1,1,2,2,3,3,6,6,7,7,8,8,10,10],"right_children":[2,4,6,8,-1,-1,10,12,14,-1,16,-1,-1,-1,-1,-1,-1],"split_conditions":[6.7341655E-2,3.4002159E0,-1.1096556E-1,1.0605363E-2,8.940016E-2,9.859234E-2,-7.521766E-2,-1.0565443E-1,-1.7419918E-1,5.9506573E-2,-1.6138811E-1,-0E0,-9.700862E-2,1.5538532E-1,-7.2328635E-2,-0E0,-6.785409E-2],"split_indices":[15,23,8,24,0,0,1,1,9,0,3,0,0,0,0,0,0],"split_type":[0,0,0,0,0,0,0,0,0,0,0,0,0,0,0,0,0],"sum_hessian":[1.9398257E2,1.1177164E2,8.221094E1,1.0146805E2,1.0303586E1,6.936374E1,1.2847194E1,8.45381E1,1.6929949E1,3.3052232E0,9.54197E0,6.3513594E0,7.818674E1,5.5303946E0,1.1399554E1,2.8926268E0,6.6493435E0],"tree_param":{"num_deleted":"0","num_feature":"26","num_nodes":"17","size_leaf_vector":"1"}},{"base_weights":[-1.3810531E-3,8.362091E-1,-5.035944E-1,9.573568E-2,-0E0,4.610984E-2,-8.181783E-1,-2.9537413E-1,9.696251E-2,-0E0,-8.810709E-2,-5.4717466E-2,6.3294E-2],"categories":[],"categories_nodes":[],"categories_segments":[],"categories_sizes":[],"default_left":[0,0,0,0,0,0,0,0,0,0,0,0,0],"id":37,"left_children":[1,3,5,-1,-1,7,9,11,-1,-1,-1,-1,-1],"loss_changes":[7.619148E1,5.2064857E0,2.0573477E1,0E0,0E0,1.3618994E1,2.541668E0,6.734768E0,0E0,0E0,0E0,0E0,0E0],"parents":[2147483647,0,0,1,1,2,2,5,5,6,6,7,7],"right_children":[2,4,6,-1,-1,8,10,12,-1,-1,-1,-1,-1],"split_conditions":[-7.521766E-2,2.9653698E-1,-2.1990904E-1,9.573568E-2,-0E0,1.2200049E0,-2.838654E-1,-2.8615516E-1,9.696251E-2,-0E0,-8.810709E-2,-5.4717466E-2,6.3294E-2],"split_indices":[1,0,8,0,0,17,0,9,0,0,0,0,0],"split_type":[0,0,0,0,0,0,0,0,0,0,0,0,0],"sum_hessian":[1.7986687E2,6.644719E1,1.13419685E2,5.938172E1,7.0654664E0,4.047804E1,7.294164E1,2.9029018E1,1.1449022E1,3.097695E0,6.984395E1,2.4215313E1,4.813706E0],"tree_param":{"num_deleted":"0","num_feature":"26","num_nodes":"13","size_leaf_vector":"1"}},{"base_weights":[-0E0,-5.620473E-1,7.741804E-1,-7.1648353E-1,8.529462E-2,9.108333E-1,-4.5618773E-2,7.0795594E-3,-8.1359833E-1,1.01588726E-1,2.7186722E-3,-8.8543737E-1,-1.0070461E-1,-0E0,-9.699644E-2,2.586756E-2,-5.4692008E-2],"categories":[],"categories_nodes":[],"categories_segments":[],"categories_sizes":[],"default_left":[0,0,0,0,0,0,0,0,0,0,0,0,0,0,0,0,0],"id":38,"left_children":[1,3,5,7,-1,9,-1,-1,11,-1,-1,13,15,-1,-1,-1,-1],"loss_changes":[7.368184E1,2.1790998E1,1.2629169E1,7.668972E0,0E0,3.4137764E0,0E0,0E0,3.1346703E0,0E0,0E0,3.1968117E0,1.9027674E0,0E0,0E0,0E0,0E0],"parents":[2147483647,0,0,1,1,2,2,3,3,5,5,8,8,11,11,12,12],"right_children":[2,4,6,8,-1,10,-1,-1,12,-1,-1,14,16,-1,-1,-1,-1],"split_conditions":[6.7341655E-2,3.4002159E0,3.1702667E-1,-2.683189E-1,8.529462E-2,1.084496E-2,-4.5618773E-2,7.0795594E-3,1.2200049E0,1.01588726E-1,2.7186722E-3,-9.725808E-2,-2.5816616E-1,-0E0,-9.699644E-2,2.586756E-2,-5.4692008E-2],"split_indices":[15,23,8,0,0,1,0,0,17,0,0,1,9,0,0,0,0],"split_type":[0,0,0,0,0,0,0,0,0,0,0,0,0,0,0,0,0],"sum_hessian":[1.677745E2,9.80797E1,6.969482E1,8.935104E1,8.728656E0,6.3607464E1,6.087351E0,8.769471E0,8.058157E1,5.73756E1,6.2318635E0,7.1749535E1,8.832032E0,5.093229E0,6.665631E1,3.8590755E0,4.972956E0],"tree_param":{"num_deleted":"0","num_feature":"26","num_nodes":"17","size_leaf_vector":"1"}},{"base_weights":[1.6507747E-2,-4.9762574E-1,7.569352E-1,-6.5670526E-1,8.5624844E-2,9.739355E-2,-0E0,-8.199441E-1,1.4645277E-2,-4.1054454E-2,7.6744705E-2,-0E0,-8.921664E-1,1.228696E-1,-6.8866074E-2,-9.888552E-2,-1.3005159E-2],"categories":[],"categories_nodes":[],"categories_segments":[],"categories_sizes":[],"default_left":[0,0,0,0,0,0,0,0,0,0,0,0,0,0,0,0,0],"id":39,"left_children":[1,3,5,7,-1,-1,9,11,13,-1,-1,-1,15,-1,-1,-1,-1],"loss_changes":[6.0142414E1,1.9877943E1,1.0101143E1,9.939838E0,0E0,0E0,4.0273333E0,4.2028427E0,1.4381928E1,0E0,0E0,0E0,2.1878815E0,0E0,0E0,0E0,0E0],"parents":[2147483647,0,0,1,1,2,2,3,3,6,6,7,7,8,8,12,12],"right_children":[2,4,6,8,-1,-1,10,12,14,-1,-1,-1,16,-1,-1,-1,-1],"split_conditions":[6.7341655E-2,3.4002159E0,-1.4987394E-1,1.0605363E-2,8.5624844E-2,9.739355E-2,1.2200049E0,-1.0565443E-1,-1.7419918E-1,-4.1054454E-2,7.6744705E-2,-0E0,1.2200049E0,1.228696E-1,-6.8866074E-2,-9.888552E-2,-1.3005159E-2],"split_indices":[15,23,8,24,0,0,17,1,9,0,0,0,17,0,0,0,0],"split_type":[0,0,0,0,0,0,0,0,0,0,0,0,0,0,0,0,0],"sum_hessian":[1.5531407E2,9.108963E1,6.422444E1,8.246931E1,8.620328E0,5.1885284E1,1.2339156E1,6.731755E1,1.5151753E1,8.986951E0,3.352205E0,5.3348846E0,6.1982666E1,5.802366E0,9.349387E0,5.541265E1,6.570015E0],"tree_param":{"num_deleted":"0","num_feature":"26","num_nodes":"17","size_leaf_vector":"1"}},{"base_weights":[9.014737E-3,-4.984028E-1,7.38295E-1,-6.5558624E-1,8.4130324E-2,9.086981E-1,-1.11968994E-1,-8.0621046E-1,-0E0,1.0143685E-1,4.0843748E-3,1.5303332E-2,-7.249205E-2,-0E0,-8.8640296E-1,1.0295293E-1,-6.0567193E-2,-9.839518E-2,-1.5997426E-1,1.4579804E-2,-5.980159E-2],"categories":[],"categories_nodes":[],"categories_segments":[],"categories_sizes":[],"default_left":[0,0,0,0,0,0,0,0,0,0,0,0,0,0,0,0,0,0,0,0,0],"id":40,"left_children":[1,3,5,7,-1,9,11,13,15,-1,-1,-1,-1,-1,17,-1,-1,-1,19,-1,-1],"loss_changes":[5.5388344E1,1.8418417E1,9.846886E0,8.449707E0,0E0,2.5374718E0,2.2370281E0,4.541355E0,9.654152E0,0E0,0E0,0E0,0E0,0E0,1.836029E0,0E0,0E0,0E0,1.4932842E0,0E0,0E0],"parents":[2147483647,0,0,1,1,2,2,3,3,5,5,6,6,7,7,8,8,14,14,18,18],"right_children":[2,4,6,8,-1,10,12,14,16,-1,-1,-1,-1,-1,18,-1,-1,-1,20,-1,-1],"split_conditions":[6.7341655E-2,3.4002159E0,1.1894505E-2,1.0605363E-2,8.4130324E-2,1.16682E0,1.770498E-1,-1.0565443E-1,-1.7419918E-1,1.0143685E-1,4.0843748E-3,1.5303332E-2,-7.249205E-2,-0E0,1.2200049E0,1.0295293E-1,-6.0567193E-2,-9.839518E-2,-2.5816616E-1,1.4579804E-2,-5.980159E-2],"split_indices":[15,23,1,24,0,7,16,1,9,0,0,0,0,0,17,0,0,0,9,0,0],"split_type":[0,0,0,0,0,0,0,0,0,0,0,0,0,0,0,0,0,0,0,0,0],"sum_hessian":[1.4703168E2,8.611151E1,6.0920162E1,7.803897E1,8.07254E0,5.163899E1,9.281171E0,6.4259964E1,1.3779011E1,4.6237022E1,5.4019694E0,5.8409295E0,3.440241E0,5.4961905E0,5.876377E1,5.343087E0,8.435924E0,5.204321E1,6.720564E0,2.9723713E0,3.7481925E0],"tree_param":{"num_deleted":"0","num_feature":"26","num_nodes":"21","size_leaf_vector":"1"}},{"base_weights":[7.7516795E-3,8.2950157E-1,-4.390076E-1,9.392319E-2,-0E0,6.474618E-2,-7.4225163E-1,-2.1614182E-1,8.253412E-2,-0E0,-8.188449E-2,-4.8274383E-1,8.967241E-2,-8.555094E-2,2.947293E-2],"categories":[],"categories_nodes":[],"categories_segments":[],"categories_sizes":[],"default_left":[0,0,0,0,0,0,0,0,0,0,0,0,0,0,0],"id":41,"left_children":[1,3,5,-1,-1,7,9,11,-1,-1,-1,13,-1,-1,-1],"loss_changes":[5.0704636E1,3.2345085E0,1.4154968E1,0E0,0E0,7.547639E0,2.7270088E0,6.904232E0,0E0,0E0,0E0,6.2382555E0,0E0,0E0,0E0],"parents":[2147483647,0,0,1,1,2,2,5,5,6,6,7,7,11,11],"right_children":[2,4,6,-1,-1,8,10,12,-1,-1,-1,14,-1,-1,-1],"split_conditions":[-7.416811E-2,5.3998524E-1,-2.1990904E-1,9.392319E-2,-0E0,1.2200049E0,-2.838654E-1,1.16682E0,8.253412E-2,-0E0,-8.188449E-2,6.7341655E-2,8.967241E-2,-8.555094E-2,2.947293E-2],"split_indices":[1,11,8,0,0,17,0,7,0,0,0,15,0,0,0],"split_type":[0,0,0,0,0,0,0,0,0,0,0,0,0,0,0],"sum_hessian":[1.3506723E2,4.802657E1,8.704066E1,4.328556E1,4.7410083E0,3.1807888E1,5.5232773E1,2.2609488E1,9.1984005E0,3.1061342E0,5.2126637E1,1.9327454E1,3.2820337E0,1.4098729E1,5.2287245E0],"tree_param":{"num_deleted":"0","num_feature":"26","num_nodes":"15","size_leaf_vector":"1"}},{"base_weights":[8.111605E-3,-4.8289344E-1,7.198476E-1,-6.283233E-1,7.926356E-2,8.771761E-1,-8.88628E-2,1.0127813E-3,-7.700484E-2,9.721821E-2,-0E0,5.5084687E-2,-7.272342E-2],"categories":[],"categories_nodes":[],"categories_segments":[],"categories_sizes":[],"default_left":[0,0,0,0,0,0,0,0,0,0,0,0,0],"id":42,"left_children":[1,3,5,7,-1,9,11,-1,-1,-1,-1,-1,-1],"loss_changes":[4.5338158E1,1.4137083E1,7.6476727E0,6.0378056E0,0E0,2.0585747E0,3.884644E0,0E0,0E0,0E0,0E0,0E0,0E0],"parents":[2147483647,0,0,1,1,2,2,3,3,5,5,6,6],"right_children":[2,4,6,8,-1,10,12,-1,-1,-1,-1,-1,-1],"split_conditions":[6.7341655E-2,3.4002159E0,1.770498E-1,-2.5795457E-1,7.926356E-2,-1.5555948E-1,1.0227568E0,1.0127813E-3,-7.700484E-2,9.721821E-2,-0E0,5.5084687E-2,-7.272342E-2],"split_indices":[15,23,16,0,0,3,18,0,0,0,0,0,0],"split_type":[0,0,0,0,0,0,0,0,0,0,0,0,0],"sum_hessian":[1.2705994E2,7.457773E1,5.2482212E1,6.797099E1,6.606729E0,4.4864395E1,7.6178155E0,9.687402E0,5.8283596E1,4.0759724E1,4.104671E0,3.079519E0,4.5382967E0],"tree_param":{"num_deleted":"0","num_feature":"26","num_nodes":"13","size_leaf_vector":"1"}},{"base_weights":[-0E0,4.9810046E-1,-6.8826133E-1,8.823232E-2,9.427351E-2,3.6770876E-2,-7.8532517E-1,-8.538288E-2,3.167528E-1,-8.873939E-2,-0E0,8.904823E-2,-0E0,1.6287531E-1,-7.710084E-2,6.8094045E-2,-0E0,-3.7435554E-2,3.6510047E-2],"categories":[],"categories_nodes":[],"categories_segments":[],"categories_sizes":[],"default_left":[0,0,0,0,0,0,0,0,0,0,0,0,0,0,0,0,0,0,0],"id":43,"left_children":[1,3,5,7,-1,-1,9,-1,11,-1,-1,-1,13,15,-1,-1,17,-1,-1],"loss_changes":[4.1713913E1,1.1136898E1,5.8629417E0,7.784753E0,0E0,0E0,2.200449E0,0E0,6.2131314E0,0E0,0E0,0E0,3.0566957E0,1.6322446E0,0E0,0E0,1.8448808E0,0E0,0E0],"parents":[2147483647,0,0,1,1,2,2,3,3,6,6,8,8,12,12,13,13,16,16],"right_children":[2,4,6,8,-1,-1,10,-1,12,-1,-1,-1,14,16,-1,-1,18,-1,-1],"split_conditions":[5.3998524E-1,1.2200049E0,-1.6222878E-1,-3.4441587E-1,9.427351E-2,3.6770876E-2,6.7341655E-2,-8.538288E-2,-9.725808E-2,-8.873939E-2,-0E0,8.904823E-2,-1.5555948E-1,-2.65609E-1,-7.710084E-2,6.8094045E-2,1.0227568E0,-3.7435554E-2,3.6510047E-2],"split_indices":[11,17,3,8,0,0,15,0,1,0,0,0,3,10,0,0,18,0,0],"split_type":[0,0,0,0,0,0,0,0,0,0,0,0,0,0,0,0,0,0,0],"sum_hessian":[1.1984624E2,6.998499E1,4.9861244E1,3.7162216E1,3.2822777E1,3.157139E0,4.6704105E1,6.027595E0,3.113462E1,4.1434937E1,5.269168E0,1.1566618E1,1.9568003E1,1.59462385E1,3.6217644E0,3.7329907E0,1.2213247E1,6.547507E0,5.6657405E0],"tree_param":{"num_deleted":"0","num_feature":"26","num_nodes":"19","size_leaf_vector":"1"}},{"base_weights":[5.3288136E-2,5.3770286E-1,-5.9714866E-1,9.161526E-2,1.1953004E-1,3.7716307E-2,-7.2669595E-1,3.3493504E-1,-7.38979E-2,-8.146216E-2,-0E0,-1.682155E-2,5.662172E-1,-0E0,7.5192645E-2],"categories":[],"categories_nodes":[],"categories_segments":[],"categories_sizes":[],"default_left":[0,0,0,0,0,0,0,0,0,0,0,0,0,0,0],"id":44,"left_children":[1,3,5,-1,7,-1,9,11,-1,-1,-1,-1,13,-1,-1],"loss_changes":[3.6125015E1,8.760874E0,6.6381836E0,0E0,5.8204436E0,0E0,1.6920204E0,3.6902068E0,0E0,0E0,0E0,0E0,2.0593843E0,0E0,0E0],"parents":[2147483647,0,0,1,1,2,2,4,4,6,6,7,7,12,12],"right_children":[2,4,6,-1,8,-1,10,12,-1,-1,-1,-1,14,-1,-1],"split_conditions":[5.3998524E-1,-7.416811E-2,-2.838654E-1,9.161526E-2,-1.553353E-1,3.7716307E-2,2.711387E0,-5.5668086E-1,-7.38979E-2,-8.146216E-2,-0E0,-1.682155E-2,-4.2681787E-2,-0E0,7.5192645E-2],"split_indices":[11,1,0,0,3,0,11,7,0,0,0,0,1,0,0],"split_type":[0,0,0,0,0,0,0,0,0,0,0,0,0,0,0],"sum_hessian":[1.1279102E2,6.559867E1,4.719235E1,3.3674927E1,3.1923748E1,4.486316E0,4.270603E1,2.6799702E1,5.1240454E0,3.8449116E1,4.2569184E0,7.2612734E0,1.953843E1,4.386298E0,1.515213E1],"tree_param":{"num_deleted":"0","num_feature":"26","num_nodes":"15","size_leaf_vector":"1"}},{"base_weights":[5.551081E-3,-4.2913103E-1,6.6302574E-1,-9.130348E-2,6.616228E-2,9.2901446E-2,-4.143617E-3,1.09139785E-1,-3.2968897E-1,2.730393E-2,-6.682728E-2],"categories":[],"categories_nodes":[],"categories_segments":[],"categories_sizes":[],"default_left":[0,0,0,0,0,0,0,0,0,0,0],"id":45,"left_children":[1,3,5,-1,7,-1,-1,-1,9,-1,-1],"loss_changes":[3.146248E1,1.5613803E1,8.384682E0,0E0,1.3339351E1,0E0,0E0,0E0,4.812607E0,0E0,0E0],"parents":[2147483647,0,0,1,1,2,2,4,4,8,8],"right_children":[2,4,6,-1,8,-1,-1,-1,10,-1,-1],"split_conditions":[6.7341655E-2,5.923197E-1,-1.1096556E-1,-9.130348E-2,-2.354724E-1,9.2901446E-2,-4.143617E-3,1.09139785E-1,5.3998524E-1,2.730393E-2,-6.682728E-2],"split_indices":[15,7,8,0,8,0,0,0,11,0,0],"split_type":[0,0,0,0,0,0,0,0,0,0,0],"sum_hessian":[1.0727632E2,6.3906136E1,4.337019E1,3.3764153E1,3.0141981E1,3.3122692E1,1.0247495E1,8.786264E0,2.1355717E1,6.476286E0,1.4879431E1],"tree_param":{"num_deleted":"0","num_feature":"26","num_nodes":"11","size_leaf_vector":"1"}},{"base_weights":[2.3705173E-2,4.5995632E-1,-5.7073414E-1,6.835252E-2,9.121684E-2,3.2218143E-2,-6.937348E-1,-7.798263E-2,2.9015762E-1,-2.6847753E-1,-9.125346E-2,8.4631965E-2,-0E0,-5.9315998E-2,-0E0,2.5054382E-2,-4.2924996E-2],"categories":[],"categories_nodes":[],"categories_segments":[],"categories_sizes":[],"default_left":[0,0,0,0,0,0,0,0,0,0,0,0,0,0,0,0,0],"id":46,"left_children":[1,3,5,7,-1,-1,9,-1,11,13,-1,-1,15,-1,-1,-1,-1],"loss_changes":[2.6452463E1,9.051567E0,5.202158E0,5.9281287E0,0E0,0E0,1.8175087E0,0E0,4.474791E0,1.6178232E0,0E0,0E0,2.0672581E0,0E0,0E0,0E0,0E0],"parents":[2147483647,0,0,1,1,2,2,3,3,6,6,8,8,9,9,12,12],"right_children":[2,4,6,8,-1,-1,10,-1,12,14,-1,-1,16,-1,-1,-1,-1],"split_conditions":[5.3998524E-1,1.2200049E0,-2.838654E-1,-3.4441587E-1,9.121684E-2,3.2218143E-2,-2.0544267E-1,-7.798263E-2,-9.725808E-2,5.923197E-1,-9.125346E-2,8.4631965E-2,-2.1435933E-1,-5.9315998E-2,-0E0,2.5054382E-2,-4.2924996E-2],"split_indices":[11,17,0,8,0,0,2,0,1,7,0,0,12,0,0,0,0],"split_type":[0,0,0,0,0,0,0,0,0,0,0,0,0,0,0,0,0],"sum_hessian":[1.0038064E2,5.8963913E1,4.1416725E1,3.2562813E1,2.6401098E1,3.9064424E0,3.7510284E1,5.446484E0,2.711633E1,1.4066504E1,2.3443779E1,9.084058E0,1.8032272E1,7.1115785E0,6.9549255E0,1.142522E1,6.6070523E0],"tree_param":{"num_deleted":"0","num_feature":"26","num_nodes":"17","size_leaf_vector":"1"}},{"base_weights":[5.012037E-2,6.9397783E-1,-3.5732743E-1,9.141072E-2,-0E0,-0E0,-6.668567E-1,5.3963043E-2,-3.3367183E-2,-1.7955118E-1,5.7554197E-2,-7.6942466E-2,-0E0,-4.3869677E-1,1.0332595E-2,-8.28675E-2,2.9372992E-2],"categories":[],"categories_nodes":[],"categories_segments":[],"categories_sizes":[],"default_left":[0,0,0,0,0,0,0,0,0,0,0,0,0,0,0,0,0],"id":47,"left_children":[1,3,5,-1,7,9,11,-1,-1,13,-1,-1,-1,15,-1,-1,-1],"loss_changes":[2.5770687E1,5.2049084E0,7.030618E0,0E0,1.7884799E0,3.1265712E0,1.9236794E0,0E0,0E0,1.8270433E0,0E0,0E0,0E0,4.036052E0,0E0,0E0,0E0],"parents":[2147483647,0,0,1,1,2,2,4,4,5,5,6,6,9,9,13,13],"right_children":[2,4,6,-1,8,10,12,-1,-1,14,-1,-1,-1,16,-1,-1,-1],"split_conditions":[-2.4759024E-1,-2.1435933E-1,5.3998524E-1,9.141072E-2,-7.521766E-2,1.2200049E0,2.711387E0,5.3963043E-2,-3.3367183E-2,5.923197E-1,5.7554197E-2,-7.6942466E-2,-0E0,3.234325E-1,1.0332595E-2,-8.28675E-2,2.9372992E-2],"split_indices":[0,12,11,0,1,17,11,0,0,7,0,0,0,15,0,0,0],"split_type":[0,0,0,0,0,0,0,0,0,0,0,0,0,0,0,0,0],"sum_hessian":[9.502367E1,3.7471714E1,5.755195E1,2.9011528E1,8.460187E0,2.5939453E1,3.1612495E1,3.0053535E0,5.454833E0,1.9039469E1,6.8999844E0,2.8320457E1,3.292038E0,1.1384778E1,7.6546907E0,8.363901E0,3.0208764E0],"tree_param":{"num_deleted":"0","num_feature":"26","num_nodes":"17","size_leaf_vector":"1"}},{"base_weights":[2.8963387E-2,-3.6530223E-1,6.451521E-1,-8.179837E-2,6.821269E-2,8.9067507E-1,-2.5414694E-2,1.062274E-1,-5.245456E-1,1.0202779E-1,-0E0,-0E0,-7.153097E-2],"categories":[],"categories_nodes":[],"categories_segments":[],"categories_sizes":[],"default_left":[0,0,0,0,0,0,0,0,0,0,0,0,0],"id":48,"left_children":[1,3,5,-1,7,9,-1,-1,11,-1,-1,-1,-1],"loss_changes":[2.2201328E1,1.0859816E1,8.768439E0,0E0,1.6363844E1,2.881157E0,0E0,0E0,1.4964137E0,0E0,0E0,0E0,0E0],"parents":[2147483647,0,0,1,1,2,2,4,4,5,5,8,8],"right_children":[2,4,6,-1,8,10,-1,-1,12,-1,-1,-1,-1],"split_conditions":[6.7341655E-2,5.923197E-1,1.1894505E-2,-8.179837E-2,-1.4621018E-1,3.1702667E-1,-2.5414694E-2,1.062274E-1,-4.05827E-2,1.0202779E-1,-0E0,-0E0,-7.153097E-2],"split_indices":[15,7,1,0,9,8,0,0,1,0,0,0,0],"split_type":[0,0,0,0,0,0,0,0,0,0,0,0,0],"sum_hessian":[8.827629E1,5.312633E1,3.5149956E1,2.7354275E1,2.5772057E1,2.8417147E1,6.7328086E0,1.0140542E1,1.5631515E1,2.5614563E1,2.8025854E0,4.09452E0,1.1536995E1],"tree_param":{"num_deleted":"0","num_feature":"26","num_nodes":"13","size_leaf_vector":"1"}},{"base_weights":[-1.629345E-2,5.921521E-1,-4.3152174E-1,8.2280144E-2,-0E0,-6.160087E-1,5.2348014E-2,-4.0155094E-2,5.2435078E-2,-9.357135E-2,-1.596822E-1,4.1663915E-1,-7.39643E-2,6.1630268E-2,-4.1555244E-1,7.911471E-2,-3.284546E-3,-0E0,-7.414526E-2],"categories":[],"categories_nodes":[],"categories_segments":[],"categories_sizes":[],"default_left":[0,0,0,0,0,0,0,0,0,0,0,0,0,0,0,0,0,0,0],"id":49,"left_children":[1,3,5,-1,7,9,11,-1,-1,-1,13,15,-1,-1,17,-1,-1,-1,-1],"loss_changes":[2.1561037E1,4.58041E0,5.2208138E0,0E0,1.9798529E0,4.0783234E0,3.9029543E0,0E0,0E0,0E0,3.5467725E0,2.4636202E0,0E0,0E0,2.0592403E0,0E0,0E0,0E0,0E0],"parents":[2147483647,0,0,1,1,2,2,4,4,5,5,6,6,10,10,11,11,14,14],"right_children":[2,4,6,-1,8,10,12,-1,-1,-1,14,16,-1,-1,18,-1,-1,-1,-1],"split_conditions":[-2.4759024E-1,-3.8483612E-2,6.7341655E-2,8.2280144E-2,6.856988E-2,5.923197E-1,-1.5555948E-1,-4.0155094E-2,5.2435078E-2,-9.357135E-2,-2.2769071E-1,-3.3148784E-2,-7.39643E-2,6.1630268E-2,1.0227568E0,7.911471E-2,-3.284546E-3,-0E0,-7.414526E-2],"split_indices":[0,1,15,0,1,7,3,0,0,0,8,8,0,0,18,0,0,0,0],"split_type":[0,0,0,0,0,0,0,0,0,0,0,0,0,0,0,0,0,0,0],"sum_hessian":[8.3919815E1,3.2920216E1,5.09996E1,2.471111E1,8.209108E0,3.816903E1,1.2830571E1,5.333166E0,2.8759425E0,2.1305939E1,1.6863092E1,9.884393E0,2.9461787E0,2.955129E0,1.3907963E1,6.3330326E0,3.55136E0,6.008964E0,7.8989987E0],"tree_param":{"num_deleted":"0","num_feature":"26","num_nodes":"19","size_leaf_vector":"1"}},{"base_weights":[1.1632856E-2,5.9745806E-1,-3.786966E-1,8.354545E-2,-0E0,-0E0,-6.853409E-1,5.6539435E-2,-5.0240424E-2,-2.3140807E-2,5.7617563E-1,-0E0,-8.1258856E-2,9.848286E-2,-0E0],"categories":[],"categories_nodes":[],"categories_segments":[],"categories_sizes":[],"default_left":[0,0,0,0,0,0,0,0,0,0,0,0,0,0,0],"id":50,"left_children":[1,3,5,-1,7,9,11,-1,-1,-1,13,-1,-1,-1,-1],"loss_changes":[1.9024702E1,4.9841413E0,6.112237E0,0E0,2.6535473E0,3.1875942E0,2.132144E0,0E0,0E0,0E0,1.649641E0,0E0,0E0,0E0,0E0],"parents":[2147483647,0,0,1,1,2,2,4,4,5,5,6,6,10,10],"right_children":[2,4,6,-1,8,10,12,-1,-1,-1,14,-1,-1,-1,-1],"split_conditions":[-2.3722592E-1,-1.6144416E-1,-2.0544267E-1,8.354545E-2,1.1595838E0,2.4471535E-1,-1.0565443E-1,5.6539435E-2,-5.0240424E-2,-2.3140807E-2,-5.9477454E-3,-0E0,-8.1258856E-2,9.848286E-2,-0E0],"split_indices":[0,3,2,0,6,0,1,0,0,0,1,0,0,0,0],"split_type":[0,0,0,0,0,0,0,0,0,0,0,0,0,0,0],"sum_hessian":[8.025928E1,3.2868755E1,4.7390522E1,2.4845604E1,8.023151E0,2.0610907E1,2.6779615E1,2.9720283E0,5.051123E0,1.4369502E1,6.2414055E0,3.4870107E0,2.3292604E1,3.4089074E0,2.8324978E0],"tree_param":{"num_deleted":"0","num_feature":"26","num_nodes":"15","size_leaf_vector":"1"}},{"base_weights":[5.892716E-2,4.5176467E-1,-4.4957393E-1,9.243955E-2,1.2666422E-1,3.3341173E-2,-5.9478927E-1,-8.394436E-2,6.5598615E-2,-6.9155055E-1,-0E0,3.714331E-2,-2.6707214E-1,-8.181522E-2,-0E0,-5.3995453E-2,6.864802E-3],"categories":[],"categories_nodes":[],"categories_segments":[],"categories_sizes":[],"default_left":[0,0,0,0,0,0,0,0,0,0,0,0,0,0,0,0,0],"id":51,"left_children":[1,3,5,-1,7,-1,9,11,-1,13,-1,-1,15,-1,-1,-1,-1],"loss_changes":[1.5796969E1,5.526373E0,4.215806E0,0E0,3.6971645E0,0E0,2.1415386E0,1.6362299E0,0E0,1.9846601E0,0E0,0E0,1.8823575E0,0E0,0E0,0E0,0E0],"parents":[2147483647,0,0,1,1,2,2,4,4,6,6,7,7,9,9,12,12],"right_children":[2,4,6,-1,8,-1,10,12,-1,14,-1,-1,16,-1,-1,-1,-1],"split_conditions":[5.3998524E-1,-1.0565443E-1,-2.838654E-1,9.243955E-2,1.2200049E0,3.3341173E-2,2.711387E0,-2.65609E-1,6.5598615E-2,6.7341655E-2,-0E0,3.714331E-2,1.0227568E0,-8.181522E-2,-0E0,-5.3995453E-2,6.864802E-3],"split_indices":[11,1,0,0,17,0,11,10,0,15,0,0,18,0,0,0,0],"split_type":[0,0,0,0,0,0,0,0,0,0,0,0,0,0,0,0,0],"sum_hessian":[7.7027664E1,4.4592865E1,3.2434803E1,1.676116E1,2.7831703E1,3.8749216E0,2.855988E1,1.8973806E1,8.857898E0,2.5341246E1,3.2186346E0,3.7032158E0,1.527059E1,2.2019438E1,3.3218071E0,9.917694E0,5.352896E0],"tree_param":{"num_deleted":"0","num_feature":"26","num_nodes":"17","size_leaf_vector":"1"}},{"base_weights":[-0E0,-2.945801E-1,6.4995044E-1,3.4411177E-2,-4.4923896E-1,8.79373E-2,-0E0,-8.334736E-2,-7.464605E-2,1.0182525E-2,-6.1423257E-2],"categories":[],"categories_nodes":[],"categories_segments":[],"categories_sizes":[],"default_left":[0,0,0,0,0,0,0,0,0,0,0],"id":52,"left_children":[1,3,5,-1,7,-1,-1,9,-1,-1,-1],"loss_changes":[1.4581358E1,5.3892083E0,2.8344164E0,0E0,3.6077442E0,0E0,0E0,2.565573E0,0E0,0E0,0E0],"parents":[2147483647,0,0,1,1,2,2,4,4,7,7],"right_children":[2,4,6,-1,8,-1,-1,10,-1,-1,-1],"split_conditions":[1.2200049E0,-1.0565443E-1,-2.0544267E-1,3.4411177E-2,-1.7419918E-1,8.79373E-2,-0E0,4.0508818E-2,-7.464605E-2,1.0182525E-2,-6.1423257E-2],"split_indices":[17,1,2,0,9,0,0,2,0,0,0],"split_type":[0,0,0,0,0,0,0,0,0,0,0],"sum_hessian":[7.434158E1,5.1656124E1,2.2685457E1,8.724238E0,4.2931885E1,1.6542286E1,6.143171E0,2.0565449E1,2.2366436E1,1.4395081E1,6.1703687E0],"tree_param":{"num_deleted":"0","num_feature":"26","num_nodes":"11","size_leaf_vector":"1"}},{"base_weights":[4.9332637E-2,5.617154E-1,-2.7330244E-1,-2.7127199E-2,6.98118E-1,7.908986E-2,-5.960642E-1,9.9523716E-2,-0E0,-2.167465E-2,7.917012E-1,-0E0,-7.437035E-2,1.3609022E-1,-0E0],"categories":[],"categories_nodes":[],"categories_segments":[],"categories_sizes":[],"default_left":[0,0,0,0,0,0,0,0,0,0,0,0,0,0,0],"id":53,"left_children":[1,3,5,-1,7,9,11,-1,-1,-1,13,-1,-1,-1,-1],"loss_changes":[1.2403285E1,3.9245863E0,5.5465403E0,0E0,5.836893E0,4.960471E0,2.4583025E0,0E0,0E0,0E0,2.8456821E0,0E0,0E0,0E0,0E0],"parents":[2147483647,0,0,1,1,2,2,4,4,5,5,6,6,10,10],"right_children":[2,4,6,-1,8,10,12,-1,-1,-1,14,-1,-1,-1,-1],"split_conditions":[-2.3722592E-1,-3.253227E-1,-2.0544267E-1,-2.7127199E-2,-1.6155624E-1,2.4471535E-1,-1.0565443E-1,9.9523716E-2,-0E0,-2.167465E-2,-2.799113E-3,-0E0,-7.437035E-2,1.3609022E-1,-0E0],"split_indices":[0,0,2,0,3,0,1,0,0,0,1,0,0,0,0],"split_type":[0,0,0,0,0,0,0,0,0,0,0,0,0,0,0],"sum_hessian":[7.138895E1,2.845167E1,4.2937275E1,2.8946369E0,2.5557032E1,1.9459389E1,2.3477886E1,1.9031332E1,6.525701E0,1.3373924E1,6.085464E0,3.1674998E0,2.0310385E1,3.1498811E0,2.935583E0],"tree_param":{"num_deleted":"0","num_feature":"26","num_nodes":"15","size_leaf_vector":"1"}},{"base_weights":[4.0907163E-2,-2.8917584E-1,6.078513E-1,-8.434273E-2,2.4204777E-1,8.1192374E-1,-7.263178E-4,1.16764784E-1,-3.574064E-2,1.0085571E-1,-0E0],"categories":[],"categories_nodes":[],"categories_segments":[],"categories_sizes":[],"default_left":[0,0,0,0,0,0,0,0,0,0,0],"id":54,"left_children":[1,3,5,-1,7,9,-1,-1,-1,-1,-1],"loss_changes":[1.3623147E1,1.3171321E1,4.2020245E0,0E0,1.2684137E1,3.060359E0,0E0,0E0,0E0,0E0,0E0],"parents":[2147483647,0,0,1,1,2,2,4,4,5,5],"right_children":[2,4,6,-1,8,10,-1,-1,-1,-1,-1],"split_conditions":[6.7341655E-2,5.923197E-1,1.770498E-1,-8.434273E-2,-1.7419918E-1,1.16682E0,-7.263178E-4,1.16764784E-1,-3.574064E-2,1.0085571E-1,-0E0],"split_indices":[15,7,16,0,9,7,0,0,0,0,0],"split_type":[0,0,0,0,0,0,0,0,0,0,0],"sum_hessian":[6.918639E1,4.296294E1,2.6223457E1,2.2115252E1,2.0847687E1,2.0626549E1,5.5969086E0,8.566503E0,1.2281185E1,1.69877E1,3.6388483E0],"tree_param":{"num_deleted":"0","num_feature":"26","num_nodes":"11","size_leaf_vector":"1"}},{"base_weights":[6.2558765E-4,5.374423E-1,-3.2918632E-1,7.475569E-2,-0E0,-0E0,-6.6316284E-2,-5.5702295E-2,5.763593E-2],"categories":[],"categories_nodes":[],"categories_segments":[],"categories_sizes":[],"default_left":[0,0,0,0,0,0,0,0,0],"id":55,"left_children":[1,3,5,-1,7,-1,-1,-1,-1],"loss_changes":[1.1986802E1,2.9516153E0,4.5119805E0,0E0,2.5588794E0,0E0,0E0,0E0,0E0],"parents":[2147483647,0,0,1,1,2,2,4,4],"right_children":[2,4,6,-1,8,-1,-1,-1,-1],"split_conditions":[-2.3722592E-1,1.3993592E-2,5.3998524E-1,7.475569E-2,6.856988E-2,-0E0,-6.6316284E-2,-5.5702295E-2,5.763593E-2],"split_indices":[0,1,11,0,1,0,0,0,0],"split_type":[0,0,0,0,0,0,0,0,0],"sum_hessian":[6.4541374E1,2.5435848E1,3.9105526E1,1.9016058E1,6.4197903E0,1.8828905E1,2.0276623E1,3.5994062E0,2.820384E0],"tree_param":{"num_deleted":"0","num_feature":"26","num_nodes":"9","size_leaf_vector":"1"}},{"base_weights":[-0E0,-2.380341E-1,6.0355633E-1,-3.5383277E-2,-8.3075486E-2,8.428529E-2,-0E0,6.8236664E-2,-6.281977E-2,-7.420167E-3,8.0422685E-2,1.3282193E-2,-4.273327E-2],"categories":[],"categories_nodes":[],"categories_segments":[],"categories_sizes":[],"default_left":[0,0,0,0,0,0,0,0,0,0,0,0,0],"id":56,"left_children":[1,3,5,7,-1,-1,-1,9,-1,11,-1,-1,-1],"loss_changes":[9.719933E0,4.5064874E0,2.3358426E0,2.743587E0,0E0,0E0,0E0,2.3979573E0,0E0,1.8525869E0,0E0,0E0,0E0],"parents":[2147483647,0,0,1,1,2,2,3,3,7,7,9,9],"right_children":[2,4,6,8,-1,-1,-1,10,-1,12,-1,-1,-1],"split_conditions":[1.2200049E0,-1.5555948E-1,-2.0544267E-1,3.0146334E-1,-8.3075486E-2,8.428529E-2,-0E0,7.1718514E-2,-6.281977E-2,1.3990633E-3,8.0422685E-2,1.3282193E-2,-4.273327E-2],"split_indices":[17,3,2,8,0,0,0,1,0,1,0,0,0],"split_type":[0,0,0,0,0,0,0,0,0,0,0,0,0],"sum_hessian":[6.377287E1,4.5307545E1,1.8465328E1,3.5470554E1,9.836988E0,1.3017667E1,5.4476604E0,2.9392704E1,6.0778503E0,2.6258251E1,3.1344516E0,1.841803E1,7.8402224E0],"tree_param":{"num_deleted":"0","num_feature":"26","num_nodes":"13","size_leaf_vector":"1"}},{"base_weights":[1.208476E-3,-2.2598305E-1,5.8916223E-1,-3.7938452E-1,5.22231E-1,8.149028E-2,-0E0,-5.1724744E-1,5.7806727E-2,1.3617665E-1,-1.71322E-2,-7.49628E-2,6.797886E-2,5.8540434E-2,-5.2004673E-2],"categories":[],"categories_nodes":[],"categories_segments":[],"categories_sizes":[],"default_left":[0,0,0,0,0,0,0,0,0,0,0,0,0,0,0],"id":57,"left_children":[1,3,5,7,9,-1,-1,11,-1,-1,-1,-1,13,-1,-1],"loss_changes":[8.781787E0,5.1516924E0,2.0330958E0,5.2433934E0,5.1562643E0,0E0,0E0,5.027091E0,0E0,0E0,0E0,0E0,2.946049E0,0E0,0E0],"parents":[2147483647,0,0,1,1,2,2,3,3,4,4,7,7,12,12],"right_children":[2,4,6,8,10,-1,-1,12,-1,-1,-1,-1,14,-1,-1],"split_conditions":[1.2200049E0,-9.646297E-3,1.3990633E-3,3.4002159E0,-6.224319E-2,8.149028E-2,-0E0,3.234325E-1,5.7806727E-2,1.3617665E-1,-1.71322E-2,-7.49628E-2,1.770498E-1,5.8540434E-2,-5.2004673E-2],"split_indices":[17,24,1,23,9,0,0,15,0,0,0,0,16,0,0],"split_type":[0,0,0,0,0,0,0,0,0,0,0,0,0,0,0],"sum_hessian":[6.109125E1,4.3327484E1,1.7763767E1,3.7442646E1,5.884835E0,1.2595094E1,5.1686745E0,3.395513E1,3.4875174E0,2.9352448E0,2.94959E0,2.5957582E1,7.997547E0,5.1714983E0,2.8260489E0],"tree_param":{"num_deleted":"0","num_feature":"26","num_nodes":"15","size_leaf_vector":"1"}},{"base_weights":[3.4913532E-2,3.532434E-1,-3.8808492E-1,7.747238E-2,9.4861455E-2,-5.8857713E-2,1.0997686E-2,6.731023E-2,-2.8687948E-4],"categories":[],"categories_nodes":[],"categories_segments":[],"categories_sizes":[],"default_left":[0,0,0,0,0,0,0,0,0],"id":58,"left_children":[1,3,5,-1,7,-1,-1,-1,-1],"loss_changes":[7.9125404E0,2.7192745E0,2.7107673E0,0E0,1.9363703E0,0E0,0E0,0E0,0E0],"parents":[2147483647,0,0,1,1,2,2,4,4],"right_children":[2,4,6,-1,8,-1,-1,-1,-1],"split_conditions":[5.3998524E-1,-9.725808E-2,1.0605363E-2,7.747238E-2,-2.65609E-1,-5.8857713E-2,1.0997686E-2,6.731023E-2,-2.8687948E-4],"split_indices":[11,1,24,0,10,0,0,0,0],"split_type":[0,0,0,0,0,0,0,0,0],"sum_hessian":[5.6969185E1,3.3906265E1,2.3062916E1,1.1069663E1,2.2836605E1,1.8110443E1,4.952473E0,4.0043893E0,1.8832214E1],"tree_param":{"num_deleted":"0","num_feature":"26","num_nodes":"9","size_leaf_vector":"1"}},{"base_weights":[-0E0,-3.1662473E-1,5.134212E-1,-7.7031136E-2,9.447983E-2,7.401446E-1,-1.1170105E-2,8.733398E-2,-3.453117E-2,9.107507E-2,-0E0],"categories":[],"categories_nodes":[],"categories_segments":[],"categories_sizes":[],"default_left":[0,0,0,0,0,0,0,0,0,0,0],"id":59,"left_children":[1,3,5,-1,7,9,-1,-1,-1,-1,-1],"loss_changes":[9.559062E0,7.3375435E0,3.8067641E0,0E0,6.9187574E0,1.5953779E0,0E0,0E0,0E0,0E0,0E0],"parents":[2147483647,0,0,1,1,2,2,4,4,5,5],"right_children":[2,4,6,-1,8,10,-1,-1,-1,-1,-1],"split_conditions":[6.7341655E-2,5.923197E-1,1.770498E-1,-7.7031136E-2,-2.0218818E-1,1.16682E0,-1.1170105E-2,8.733398E-2,-3.453117E-2,9.107507E-2,-0E0],"split_indices":[15,7,16,0,9,7,0,0,0,0,0],"split_type":[0,0,0,0,0,0,0,0,0,0,0],"sum_hessian":[5.734373E1,3.627335E1,2.107038E1,1.8412962E1,1.7860388E1,1.6440868E1,4.629511E0,6.9421453E0,1.0918243E1,1.3201964E1,3.2389045E0],"tree_param":{"num_deleted":"0","num_feature":"26","num_nodes":"11","size_leaf_vector":"1"}},{"base_weights":[-0E0,-2.603541E-1,4.690208E-1,-8.097314E-2,2.184075E-1,6.5859145E-1,-2.9159533E-2,9.491037E-2,-3.158588E-2,9.964697E-2,-0E0],"categories":[],"categories_nodes":[],"categories_segments":[],"categories_sizes":[],"default_left":[0,0,0,0,0,0,0,0,0,0,0],"id":60,"left_children":[1,3,5,-1,7,9,-1,-1,-1,-1,-1],"loss_changes":[7.168002E0,9.866804E0,3.6089854E0,0E0,7.8526263E0,2.8871555E0,0E0,0E0,0E0,0E0,0E0],"parents":[2147483647,0,0,1,1,2,2,4,4,5,5],"right_children":[2,4,6,-1,8,10,-1,-1,-1,-1,-1],"split_conditions":[6.7341655E-2,5.923197E-1,-1.5555948E-1,-8.097314E-2,-1.18221186E-1,1.0227568E0,-2.9159533E-2,9.491037E-2,-3.158588E-2,9.964697E-2,-0E0],"split_indices":[15,7,3,0,9,18,0,0,0,0,0],"split_type":[0,0,0,0,0,0,0,0,0,0,0],"sum_hessian":[5.5613537E1,3.519982E1,2.0413715E1,1.7401035E1,1.7798786E1,1.7434208E1,2.9795072E0,8.062368E0,9.736417E0,1.0576034E1,6.858175E0],"tree_param":{"num_deleted":"0","num_feature":"26","num_nodes":"11","size_leaf_vector":"1"}},{"base_weights":[-0E0,-2.7030146E-1,4.2709696E-1,-8.136752E-2,1.9804657E-1,7.1084887E-1,-1.5695099E-2,9.6521504E-2,-3.403566E-2,8.8371076E-2,-0E0],"categories":[],"categories_nodes":[],"categories_segments":[],"categories_sizes":[],"default_left":[0,0,0,0,0,0,0,0,0,0,0],"id":61,"left_children":[1,3,5,-1,7,9,-1,-1,-1,-1,-1],"loss_changes":[6.382225E0,9.158292E0,4.131256E0,0E0,7.963803E0,1.5367446E0,0E0,0E0,0E0,0E0,0E0],"parents":[2147483647,0,0,1,1,2,2,4,4,5,5],"right_children":[2,4,6,-1,8,10,-1,-1,-1,-1,-1],"split_conditions":[6.7341655E-2,5.923197E-1,1.084496E-2,-8.136752E-2,-1.4621018E-1,2.0030153E-1,-1.5695099E-2,9.6521504E-2,-3.403566E-2,8.8371076E-2,-0E0],"split_indices":[15,7,1,0,9,8,0,0,0,0,0],"split_type":[0,0,0,0,0,0,0,0,0,0,0],"sum_hessian":[5.3654198E1,3.3504E1,2.0150196E1,1.6503984E1,1.7000017E1,1.4495196E1,5.6549997E0,7.517686E0,9.482331E0,1.1671349E1,2.823847E0],"tree_param":{"num_deleted":"0","num_feature":"26","num_nodes":"11","size_leaf_vector":"1"}},{"base_weights":[4.504445E-2,-1.3643765E-1,5.707796E-2,1.259843E-3,-7.733079E-2,-2.6906827E-2,2.9465377E-1,6.961964E-2,-0E0],"categories":[],"categories_nodes":[],"categories_segments":[],"categories_sizes":[],"default_left":[0,0,0,0,0,0,0,0,0],"id":62,"left_children":[1,3,-1,5,-1,-1,7,-1,-1],"loss_changes":[5.387168E0,3.9913197E0,0E0,2.516337E0,0E0,0E0,2.554872E0,0E0,0E0],"parents":[2147483647,0,0,1,1,3,3,6,6],"right_children":[2,4,-1,6,-1,-1,8,-1,-1],"split_conditions":[1.2200049E0,-1.5555948E-1,5.707796E-2,5.923197E-1,-7.733079E-2,-2.6906827E-2,1.0227568E0,6.961964E-2,-0E0],"split_indices":[17,3,0,7,0,0,18,0,0],"split_type":[0,0,0,0,0,0,0,0,0],"sum_hessian":[5.1968277E1,3.74814E1,1.4486879E1,3.0174124E1,7.307275E0,1.4230674E1,1.5943451E1,7.76789E0,8.175561E0],"tree_param":{"num_deleted":"0","num_feature":"26","num_nodes":"9","size_leaf_vector":"1"}},{"base_weights":[-0E0,-1.7410782E-1,5.2670103E-2,-3.2861823E-1,5.150388E-2,-4.7426727E-2,4.8771117E-2],"categories":[],"categories_nodes":[],"categories_segments":[],"categories_sizes":[],"default_left":[0,0,0,0,0,0,0],"id":63,"left_children":[1,3,-1,5,-1,-1,-1],"loss_changes":[5.007094E0,3.9640498E0,0E0,3.6944242E0,0E0,0E0,0E0],"parents":[2147483647,0,0,1,1,3,3],"right_children":[2,4,-1,6,-1,-1,-1],"split_conditions":[1.2200049E0,1.0605363E-2,5.2670103E-2,1.9119073E0,5.150388E-2,-4.7426727E-2,4.8771117E-2],"split_indices":[17,24,0,22,0,0,0],"split_type":[0,0,0,0,0,0,0],"sum_hessian":[5.0663082E1,3.698951E1,1.3673573E1,3.1689207E1,5.3003E0,2.8597866E1,3.0913415E0],"tree_param":{"num_deleted":"0","num_feature":"26","num_nodes":"7","size_leaf_vector":"1"}},{"base_weights":[-0E0,3.7491363E-1,-2.2710606E-1,5.7930887E-2,-0E0,-1.7935932E-2,-7.168416E-2,1.8619518E-1,-4.943843E-2,-9.9656045E-2,6.6805564E-2,-5.844162E-2,5.048474E-2],"categories":[],"categories_nodes":[],"categories_segments":[],"categories_sizes":[],"default_left":[0,0,0,0,0,0,0,0,0,0,0,0,0],"id":64,"left_children":[1,3,5,-1,-1,7,-1,9,-1,11,-1,-1,-1],"loss_changes":[4.3447027E0,1.5352645E0,2.602594E0,0E0,0E0,2.8078432E0,0E0,2.8694081E0,0E0,3.1799943E0,0E0,0E0,0E0],"parents":[2147483647,0,0,1,1,2,2,5,5,7,7,9,9],"right_children":[2,4,6,-1,-1,8,-1,10,-1,12,-1,-1,-1],"split_conditions":[-2.4759024E-1,-2.1435933E-1,-1.5555948E-1,5.7930887E-2,-0E0,-3.4254193E-2,-7.168416E-2,5.923197E-1,-4.943843E-2,6.7341655E-2,6.6805564E-2,-5.844162E-2,5.048474E-2],"split_indices":[0,12,3,0,0,9,0,7,0,15,0,0,0],"split_type":[0,0,0,0,0,0,0,0,0,0,0,0,0],"sum_hessian":[5.0170944E1,1.7559183E1,3.261176E1,1.2042461E1,5.5167227E0,2.4722166E1,7.8895946E0,1.6127642E1,8.594524E0,9.1781435E0,6.949498E0,6.0511274E0,3.1270156E0],"tree_param":{"num_deleted":"0","num_feature":"26","num_nodes":"13","size_leaf_vector":"1"}},{"base_weights":[4.601715E-2,2.5243074E-1,-2.684119E-1,-0E0,5.7425433E-1,-5.3774893E-2,2.3598097E-2,-4.089456E-2,3.0018193E-1,8.440496E-2,-0E0,6.6557005E-2,-1.1253042E-2],"categories":[],"categories_nodes":[],"categories_segments":[],"categories_sizes":[],"default_left":[0,0,0,0,0,0,0,0,0,0,0,0,0],"id":65,"left_children":[1,3,5,7,9,-1,-1,-1,11,-1,-1,-1,-1],"loss_changes":[3.316576E0,2.3403687E0,2.759432E0,2.4936674E0,2.4941745E0,0E0,0E0,0E0,2.4350376E0,0E0,0E0,0E0,0E0],"parents":[2147483647,0,0,1,1,2,2,3,3,4,4,8,8],"right_children":[2,4,6,8,10,-1,-1,-1,12,-1,-1,-1,-1],"split_conditions":[7.2166276E-1,6.7341655E-2,1.0605363E-2,5.923197E-1,2.0290857E-2,-5.3774893E-2,2.3598097E-2,-4.089456E-2,2.9934222E-1,8.440496E-2,-0E0,6.6557005E-2,-1.1253042E-2],"split_indices":[10,15,24,7,1,0,0,0,14,0,0,0,0],"split_type":[0,0,0,0,0,0,0,0,0,0,0,0,0],"sum_hessian":[4.92694E1,3.1721052E1,1.754835E1,1.9311491E1,1.2409562E1,1.2861491E1,4.6868577E0,7.3681817E0,1.1943309E1,9.253207E0,3.1563544E0,7.4236255E0,4.519684E0],"tree_param":{"num_deleted":"0","num_feature":"26","num_nodes":"13","size_leaf_vector":"1"}},{"base_weights":[1.5144914E-2,-1.6796349E-1,4.0594828E-1,-4.2265332E-1,5.1969343E-1,7.747275E-2,-0E0,-5.555328E-1,1.9195052E-2,1.1326013E-1,-6.7125037E-3,-7.2195366E-2,-0E0],"categories":[],"categories_nodes":[],"categories_segments":[],"categories_sizes":[],"default_left":[0,0,0,0,0,0,0,0,0,0,0,0,0],"id":66,"left_children":[1,3,5,7,9,-1,-1,11,-1,-1,-1,-1,-1],"loss_changes":[3.729873E0,5.676376E0,2.957392E0,2.461782E0,3.7954543E0,0E0,0E0,1.7597742E0,0E0,0E0,0E0,0E0,0E0],"parents":[2147483647,0,0,1,1,2,2,3,3,4,4,7,7],"right_children":[2,4,6,8,10,-1,-1,12,-1,-1,-1,-1,-1],"split_conditions":[6.7341655E-2,1.0605363E-2,1.0227568E0,5.8428454E-1,-1.7419918E-1,7.747275E-2,-0E0,1.2200049E0,1.9195052E-2,1.1326013E-1,-6.7125037E-3,-7.2195366E-2,-0E0],"split_indices":[15,24,18,22,9,0,0,17,0,0,0,0,0],"split_type":[0,0,0,0,0,0,0,0,0,0,0,0,0],"sum_hessian":[4.6928833E1,3.0663992E1,1.6264841E1,2.3687475E1,6.976518E0,9.20796E0,7.056881E0,2.082336E1,2.864115E0,3.8774438E0,3.0990744E0,1.6219336E1,4.604024E0],"tree_param":{"num_deleted":"0","num_feature":"26","num_nodes":"13","size_leaf_vector":"1"}},{"base_weights":[-0E0,-2.0502676E-1,3.6439607E-1,-6.390925E-2,1.29481675E-2,7.4627236E-2,-1.9585895E-3],"categories":[],"categories_nodes":[],"categories_segments":[],"categories_sizes":[],"default_left":[0,0,0,0,0,0,0],"id":67,"left_children":[1,3,5,-1,-1,-1,-1],"loss_changes":[3.4777927E0,4.6859975E0,3.015123E0,0E0,0E0,0E0,0E0],"parents":[2147483647,0,0,1,1,2,2],"right_children":[2,4,6,-1,-1,-1,-1],"split_conditions":[6.7341655E-2,5.923197E-1,-1.4987394E-1,-6.390925E-2,1.29481675E-2,7.4627236E-2,-1.9585895E-3],"split_indices":[15,7,8,0,0,0,0],"split_type":[0,0,0,0,0,0,0],"sum_hessian":[4.4620262E1,2.8916264E1,1.5703998E1,1.3701326E1,1.5214937E1,8.915639E0,6.788358E0],"tree_param":{"num_deleted":"0","num_feature":"26","num_nodes":"7","size_leaf_vector":"1"}},{"base_weights":[5.2803557E-2,3.3662525E-1,-2.747087E-1,6.407045E-3,8.195188E-2,-0E0,-7.629983E-2,-3.4190703E-2,6.186805E-2],"categories":[],"categories_nodes":[],"categories_segments":[],"categories_sizes":[],"default_left":[0,0,0,0,0,0,0,0,0],"id":68,"left_children":[1,3,5,-1,-1,7,-1,-1,-1],"loss_changes":[4.319933E0,2.4093013E0,2.892055E0,0E0,0E0,2.8995113E0,0E0,0E0,0E0],"parents":[2147483647,0,0,1,1,2,2,5,5],"right_children":[2,4,6,-1,-1,8,-1,-1,-1],"split_conditions":[1.3990633E-3,1.2200049E0,-2.4757188E-2,6.407045E-3,8.195188E-2,7.1718514E-2,-7.629983E-2,-3.4190703E-2,6.186805E-2],"split_indices":[1,17,0,0,